{"learner":{"attributes":{"scikit_learn":"{\"_estimator_type\": \"classifier\"}"},"feature_names":["age","bmi","apache_ii_score","heart_rate","respiratory_rate","body_temperature","systolic_pressure","diastolic_pressure","gcs_score","urine_output","na","k","hco3","creatinine","hemoglobin","hematocrit","albumin","ph","wbc","platelet","pao2_fio2","bilirubin","blood_sugar","alk","alt","ast","mch","mcv","mchc","bun","rdw","pt","numberOfCatheters","daysOfCatheterization","hasOtherInfections_1"],"feature_types":["int","float","float","float","float","float","float","float","float","float","float","float","float","float","float","float","float","float","float","float","float","float","float","float","float","float","float","float","float","float","float","float","int","float","i"],"gradient_booster":{"model":{"gbtree_model_param":{"num_parallel_tree":"1","num_trees":"200"},"iteration_indptr":[0,1,2,3,4,5,6,7,8,9,10,11,12,13,14,15,16,17,18,19,20,21,22,23,24,25,26,27,28,29,30,31,32,33,34,35,36,37,38,39,40,41,42,43,44,45,46,47,48,49,50,51,52,53,54,55,56,57,58,59,60,61,62,63,64,65,66,67,68,69,70,71,72,73,74,75,76,77,78,79,80,81,82,83,84,85,86,87,88,89,90,91,92,93,94,95,96,97,98,99,100,101,102,103,104,105,106,107,108,109,110,111,112,113,114,115,116,117,118,119,120,121,122,123,124,125,126,127,128,129,130,131,132,133,134,135,136,137,138,139,140,141,142,143,144,145,146,147,148,149,150,151,152,153,154,155,156,157,158,159,160,161,162,163,164,165,166,167,168,169,170,171,172,173,174,175,176,177,178,179,180,181,182,183,184,185,186,187,188,189,190,191,192,193,194,195,196,197,198,199,200],"tree_info":[0,0,0,0,0,0,0,0,0,0,0,0,0,0,0,0,0,0,0,0,0,0,0,0,0,0,0,0,0,0,0,0,0,0,0,0,0,0,0,0,0,0,0,0,0,0,0,0,0,0,0,0,0,0,0,0,0,0,0,0,0,0,0,0,0,0,0,0,0,0,0,0,0,0,0,0,0,0,0,0,0,0,0,0,0,0,0,0,0,0,0,0,0,0,0,0,0,0,0,0,0,0,0,0,0,0,0,0,0,0,0,0,0,0,0,0,0,0,0,0,0,0,0,0,0,0,0,0,0,0,0,0,0,0,0,0,0,0,0,0,0,0,0,0,0,0,0,0,0,0,0,0,0,0,0,0,0,0,0,0,0,0,0,0,0,0,0,0,0,0,0,0,0,0,0,0,0,0,0,0,0,0,0,0,0,0,0,0,0,0,0,0,0,0,0,0,0,0,0,0],"trees":[{"base_weights":[7.544199E-3,-7.745223E-1,8.108147E-1,-9.9661976E-1,-1.3792562E-1,8.7550956E-1,-6.553749E-2,8.422827E-3,-1.0402634E0,1.9204864E-2,-2.3706529E-1,-1.7962772E-2,9.494765E-1,-1.3096206E-1,5.2867997E-2,-1.08099185E-1,-4.379457E-2,7.61436E-2,-3.2757816E-1,-1.0590966E-2,7.371945E-2,-1.4521706E-2,9.972416E-1,-1.6001476E-2,1.9220253E-3,-2.9474895E-3,9.170615E-3,6.3231997E-3,-1.1878491E-2,-9.5017385E-3,1.6710024E-2,-3.8337957E-2,-2.122785E-3,-3.9316383E-3,1.1847692E-2,-7.073942E-3,4.3608607E-3,-1.0187257E-3,1.0272874E-1],"categories":[],"categories_nodes":[],"categories_segments":[],"categories_sizes":[],"default_left":[0,0,0,0,0,0,0,0,0,0,0,0,0,0,0,0,0,0,0,0,0,0,0,0,0,0,0,0,0,0,0,0,0,0,0,0,0,0,0],"id":0,"left_children":[1,3,5,7,9,11,13,-1,15,-1,17,19,21,23,25,-1,27,29,31,-1,33,35,37,-1,-1,-1,-1,-1,-1,-1,-1,-1,-1,-1,-1,-1,-1,-1,-1],"loss_changes":[6.486236E2,5.906253E1,3.543338E1,2.7194794E1,1.2857814E1,3.4523315E1,1.7542787E0,0E0,8.933807E0,0E0,9.58489E0,1.8934047E0,2.3081696E1,9.544759E-1,6.87516E-1,0E0,1.7657502E0,3.726489E0,2.3457527E0,0E0,1.1470098E0,7.236828E-1,1.5071381E1,0E0,0E0,0E0,0E0,0E0,0E0,0E0,0E0,0E0,0E0,0E0,0E0,0E0,0E0,0E0,0E0],"parents":[2147483647,0,0,1,1,2,2,3,3,4,4,5,5,6,6,8,8,10,10,11,11,12,12,13,13,14,14,16,16,17,17,18,18,20,20,21,21,22,22],"right_children":[2,4,6,8,10,12,14,-1,16,-1,18,20,22,24,26,-1,28,30,32,-1,34,36,38,-1,-1,-1,-1,-1,-1,-1,-1,-1,-1,-1,-1,-1,-1,-1,-1],"split_conditions":[1.2233281E1,7.1686025E0,1.5E1,2.49E1,8E0,1.5565655E1,8.428185E1,8.422827E-3,1E0,1.9204864E-2,2.3E0,2.204309E1,2.159329E0,1.5064305E2,9.176521E1,-1.08099185E-1,8.9E0,6.3014687E1,1.331984E2,-1.0590966E-2,7.484239E1,3.1911726E1,7.457537E-1,-1.6001476E-2,1.9220253E-3,-2.9474895E-3,9.170615E-3,6.3231997E-3,-1.1878491E-2,-9.5017385E-3,1.6710024E-2,-3.8337957E-2,-2.122785E-3,-3.9316383E-3,1.1847692E-2,-7.073942E-3,4.3608607E-3,-1.0187257E-3,1.0272874E-1],"split_indices":[33,33,8,28,33,4,7,0,34,0,16,33,8,24,3,0,14,7,6,0,3,28,20,0,0,0,0,0,0,0,0,0,0,0,0,0,0,0,0],"split_type":[0,0,0,0,0,0,0,0,0,0,0,0,0,0,0,0,0,0,0,0,0,0,0,0,0,0,0,0,0,0,0,0,0,0,0,0,0,0,0],"sum_hessian":[8.3247015E2,4.2298483E2,4.0948532E2,2.704903E2,1.5249454E2,3.824863E2,2.6999033E1,5.999785E0,2.6449054E2,1.1249597E1,1.4124493E2,3.3998783E1,3.4848752E2,1.5999427E1,1.0999606E1,2.4499123E2,1.9499302E1,3.2748825E1,1.0849612E2,1.4999463E1,1.899932E1,1.8749329E1,3.297382E2,1.34995165E1,2.4999104E0,2.9998925E0,7.9997134E0,8.999678E0,1.0499624E1,5.999785E0,2.6749043E1,6.7747574E1,4.074854E1,2.4999104E0,1.6499409E1,7.24974E0,1.1499588E1,1.0499624E1,3.1923856E2],"tree_param":{"num_deleted":"0","num_feature":"35","num_nodes":"39","size_leaf_vector":"1"}},{"base_weights":[4.810103E-5,-7.3312396E-1,7.495138E-1,-9.43235E-1,-1.5145479E-1,8.189963E-1,-9.1368794E-2,7.024206E-3,-9.80725E-1,-3.5372537E-1,1.2084771E-1,-0E0,9.068949E-1,-1.5428188E-1,4.765482E-2,-1.0073664E-1,-5.268721E-2,7.5213434E-3,-4.147572E-1,2.147813E-1,-9.2956446E-2,-9.198787E-2,1.0861743E-1,-2.3070814E-2,9.5215225E-1,-1.8293487E-1,1.9335466E-3,9.111149E-3,-3.4270384E-3,4.0721674E-3,-1.05312625E-2,6.7574164E-4,-4.5414556E-2,2.7669245E-2,-6.527369E-3,3.6990691E-3,-1.4477551E-2,-1.4452974E-2,3.6747009E-3,-3.0112802E-3,1.4551155E-2,-7.5748875E-3,3.915036E-3,9.7055815E-2,-4.156913E-3,-1.9914053E-2,4.983338E-4],"categories":[],"categories_nodes":[],"categories_segments":[],"categories_sizes":[],"default_left":[0,0,0,0,0,0,0,0,0,0,0,0,0,0,0,0,0,0,0,0,0,0,0,0,0,0,0,0,0,0,0,0,0,0,0,0,0,0,0,0,0,0,0,0,0,0,0],"id":1,"left_children":[1,3,5,7,9,11,13,-1,15,17,19,21,23,25,27,-1,29,-1,31,33,35,37,39,41,43,45,-1,-1,-1,-1,-1,-1,-1,-1,-1,-1,-1,-1,-1,-1,-1,-1,-1,-1,-1,-1,-1],"loss_changes":[5.6537427E2,4.8100983E1,3.7976624E1,2.152301E1,1.8730473E1,3.383249E1,1.9591978E0,0E0,2.4329224E0,8.059736E0,5.783361E0,2.4905515E0,2.1391602E1,1.0968587E0,7.651521E-1,0E0,1.0661154E0,0E0,3.597332E0,4.7958603E0,1.466499E0,1.5146843E0,1.1587479E0,7.158263E-1,1.2595032E1,6.420872E-1,0E0,0E0,0E0,0E0,0E0,0E0,0E0,0E0,0E0,0E0,0E0,0E0,0E0,0E0,0E0,0E0,0E0,0E0,0E0,0E0,0E0],"parents":[2147483647,0,0,1,1,2,2,3,3,4,4,5,5,6,6,8,8,9,9,10,10,11,11,12,12,13,13,14,14,16,16,18,18,19,19,20,20,21,21,22,22,23,23,24,24,25,25],"right_children":[2,4,6,8,10,12,14,-1,16,18,20,22,24,26,28,-1,30,-1,32,34,36,38,40,42,44,46,-1,-1,-1,-1,-1,-1,-1,-1,-1,-1,-1,-1,-1,-1,-1,-1,-1,-1,-1,-1,-1],"split_conditions":[1.2233281E1,7.1686025E0,1.5E1,2.49E1,3.6652523E1,1.6062204E1,8.428185E1,7.024206E-3,1E0,8E0,1.3529309E1,5.1919636E1,2.159329E0,2.2E2,1.8109554E2,-1.0073664E-1,8.85E0,7.5213434E-3,2E0,1.5E1,1.474184E2,1.7542767E1,2.3481071E1,3.1803532E1,4.19E2,1.4379135E2,1.9335466E-3,9.111149E-3,-3.4270384E-3,4.0721674E-3,-1.05312625E-2,6.7574164E-4,-4.5414556E-2,2.7669245E-2,-6.527369E-3,3.6990691E-3,-1.4477551E-2,-1.4452974E-2,3.6747009E-3,-3.0112802E-3,1.4551155E-2,-7.5748875E-3,3.915036E-3,9.7055815E-2,-4.156913E-3,-1.9914053E-2,4.983338E-4],"split_indices":[33,33,8,28,5,4,7,0,34,33,18,25,8,25,19,0,14,0,16,8,19,31,1,28,19,6,0,0,0,0,0,0,0,0,0,0,0,0,0,0,0,0,0,0,0,0,0],"split_type":[0,0,0,0,0,0,0,0,0,0,0,0,0,0,0,0,0,0,0,0,0,0,0,0,0,0,0,0,0,0,0,0,0,0,0,0,0,0,0,0,0,0,0,0,0,0,0],"sum_hessian":[8.288826E2,4.194236E2,4.09459E2,2.6119522E2,1.582284E2,3.8171014E2,2.7748875E1,5.2494545E0,2.5594577E2,7.573902E1,8.2489365E1,4.7716236E1,3.339939E2,1.6499834E1,1.1249041E1,2.394464E2,1.6499372E1,4.4989066E0,7.124012E1,6.0242382E1,2.2246986E1,2.9479836E1,1.82364E1,1.6749308E1,3.172446E2,1.449993E1,1.9999036E0,7.999175E0,3.2498655E0,7.2493935E0,9.249979E0,1.0998248E1,6.0241867E1,5.3243378E1,6.9990044E0,8.998678E0,1.3248309E1,1.7738605E1,1.1741231E1,1.9982864E0,1.6238115E1,5.9999638E0,1.0749344E1,3.1475198E2,2.4926085E0,1.2749937E1,1.7499928E0],"tree_param":{"num_deleted":"0","num_feature":"35","num_nodes":"47","size_leaf_vector":"1"}},{"base_weights":[-2.510958E-2,-6.475041E-1,7.244253E-1,-8.841182E-1,-1.335369E-1,7.857764E-1,-5.9652098E-2,-9.2596596E-1,3.1011999E-2,-3.4082958E-1,1.21034615E-1,-1.2417464E-2,8.310561E-1,-1.231729E-1,5.2328086E-3,-2.576052E-4,-9.3879384E-1,-5.1994394E-3,9.327865E-3,9.2771435E-3,-4.08861E-1,-1.5400465E-1,2.3080224E-1,-8.208773E-3,6.1539277E-3,-1.0202811E-2,8.681489E-1,-1.5685579E-2,2.4013687E-3,-9.434193E-2,-0E0,1.8025242E-3,-4.6332676E-2,4.2015873E-4,-1.696512E-2,2.9134763E-2,-7.3328125E-3,-7.491333E-3,5.439623E-3,-1.9854184E-3,8.88801E-2],"categories":[],"categories_nodes":[],"categories_segments":[],"categories_sizes":[],"default_left":[0,0,0,0,0,0,0,0,0,0,0,0,0,0,0,0,0,0,0,0,0,0,0,0,0,0,0,0,0,0,0,0,0,0,0,0,0,0,0,0,0],"id":2,"left_children":[1,3,5,7,9,11,13,15,17,19,21,23,25,27,-1,-1,29,-1,-1,-1,31,33,35,-1,-1,37,39,-1,-1,-1,-1,-1,-1,-1,-1,-1,-1,-1,-1,-1,-1],"loss_changes":[4.8062653E2,5.5468643E1,2.7941574E1,1.7760406E1,1.9973125E1,1.7846191E1,1.609829E0,3.0065918E0,1.1035722E0,9.761177E0,9.80661E0,1.1496925E0,1.489566E1,1.0833519E0,0E0,0E0,1.6991577E0,0E0,0E0,0E0,5.6075516E0,5.231998E-1,5.831273E0,0E0,0E0,9.108298E-1,1.0078796E1,0E0,0E0,0E0,0E0,0E0,0E0,0E0,0E0,0E0,0E0,0E0,0E0,0E0,0E0],"parents":[2147483647,0,0,1,1,2,2,3,3,4,4,5,5,6,6,7,7,8,8,9,9,10,10,11,11,12,12,13,13,16,16,20,20,21,21,22,22,25,25,26,26],"right_children":[2,4,6,8,10,12,14,16,18,20,22,24,26,28,-1,-1,30,-1,-1,-1,32,34,36,-1,-1,38,40,-1,-1,-1,-1,-1,-1,-1,-1,-1,-1,-1,-1,-1,-1],"split_conditions":[1.4012101E1,7.1686025E0,1.5E1,2.51E1,3.6652523E1,1.08E2,8.428185E1,1.6E0,8.52E1,8E0,6.5053375E1,1.7432377E1,2.159329E0,1.5064305E2,5.2328086E-3,-2.576052E-4,6.24E-1,-5.1994394E-3,9.327865E-3,9.2771435E-3,2.0906756E0,3.6739258E1,1.5E1,-8.208773E-3,6.1539277E-3,1.5472523E2,6.98E1,-1.5685579E-2,2.4013687E-3,-9.434193E-2,-0E0,1.8025242E-3,-4.6332676E-2,4.2015873E-4,-1.696512E-2,2.9134763E-2,-7.3328125E-3,-7.491333E-3,5.439623E-3,-1.9854184E-3,8.88801E-2],"split_indices":[33,33,8,30,5,6,7,16,27,33,7,30,8,24,0,0,15,0,0,0,16,5,8,0,0,22,27,0,0,0,0,0,0,0,0,0,0,0,0,0,0],"split_type":[0,0,0,0,0,0,0,0,0,0,0,0,0,0,0,0,0,0,0,0,0,0,0,0,0,0,0,0,0,0,0,0,0,0,0,0,0,0,0,0,0],"sum_hessian":[8.2988354E2,4.6156146E2,3.6832205E2,2.6541074E2,1.9615071E2,3.4257553E2,2.574654E1,2.5371724E2,1.1693519E1,9.1603935E1,1.04546776E2,2.1100777E1,3.2147473E2,1.5748237E1,9.998303E0,6.1898327E0,2.475274E2,5.199459E0,6.494059E0,5.4979415E0,8.6105995E1,1.57277565E1,8.881902E1,1.2166551E1,8.934225E0,1.5498799E1,3.0597595E2,1.2998382E1,2.7498546E0,2.4603705E2,1.4903595E0,1.5236001E1,7.0869995E1,2.24661E0,1.3481147E1,8.032021E1,8.49881E0,7.499663E0,7.999136E0,5.9415574E0,3.000344E2],"tree_param":{"num_deleted":"0","num_feature":"35","num_nodes":"41","size_leaf_vector":"1"}},{"base_weights":[-2.2222754E-2,-6.6420066E-1,6.360034E-1,-8.149758E-1,-1.81026E-1,-3.0324737E-2,7.122404E-1,9.631636E-3,-8.618837E-1,-3.43263E-1,7.494005E-2,-1.3114247E-1,9.218226E-2,-1.2667952E-2,7.608653E-1,-8.957397E-2,-2.1564666E-2,6.99887E-3,-4.0027764E-1,1.7901684E-1,-1.010322E-1,2.1513023E-3,-1.6154712E-1,-4.429838E-3,1.4390112E-1,-8.974634E-3,6.562003E-2,7.8731304E-1,-7.069116E-3,7.87936E-3,-1.1086284E-2,6.6910085E-4,-4.4566974E-2,-6.103613E-3,2.352061E-2,3.2699916E-3,-1.37820635E-2,-1.7575024E-2,4.241361E-4,-7.2616374E-4,1.6202306E-2,-2.5981124E-3,9.913928E-3,-1.0944064E-3,8.202918E-2],"categories":[],"categories_nodes":[],"categories_segments":[],"categories_sizes":[],"default_left":[0,0,0,0,0,0,0,0,0,0,0,0,0,0,0,0,0,0,0,0,0,0,0,0,0,0,0,0,0,0,0,0,0,0,0,0,0,0,0,0,0,0,0,0,0],"id":3,"left_children":[1,3,5,7,9,11,13,-1,15,17,19,21,23,25,27,-1,29,-1,31,33,35,-1,37,-1,39,-1,41,43,-1,-1,-1,-1,-1,-1,-1,-1,-1,-1,-1,-1,-1,-1,-1,-1,-1],"loss_changes":[4.3297256E2,2.1969803E1,2.8588333E1,2.464743E1,1.3358455E1,3.058557E0,1.7934433E1,0E0,7.328644E0,7.2627907E0,5.145603E0,1.0732107E0,1.5871186E0,1.3733643E0,1.5832169E1,0E0,1.9583019E0,0E0,3.897602E0,3.6527357E0,1.1780645E0,0E0,5.343485E-1,0E0,5.9068966E-1,0E0,6.802597E-1,1.3033569E1,0E0,0E0,0E0,0E0,0E0,0E0,0E0,0E0,0E0,0E0,0E0,0E0,0E0,0E0,0E0,0E0,0E0],"parents":[2147483647,0,0,1,1,2,2,3,3,4,4,5,5,6,6,8,8,9,9,10,10,11,11,12,12,13,13,14,14,16,16,18,18,19,19,20,20,22,22,24,24,26,26,27,27],"right_children":[2,4,6,8,10,12,14,-1,16,18,20,22,24,26,28,-1,30,-1,32,34,36,-1,38,-1,40,-1,42,44,-1,-1,-1,-1,-1,-1,-1,-1,-1,-1,-1,-1,-1,-1,-1,-1,-1],"split_conditions":[1.2233281E1,7.1686025E0,1.6062204E1,2.49E1,3.6652523E1,3.6392365E1,8.54E-1,9.631636E-3,1E0,8E0,3.257724E1,3.61E1,2.353428E1,1.25660286E2,4.19E2,-8.957397E-2,8.9E0,6.99887E-3,1.655E1,6.3E1,8E0,2.1513023E-3,3.548529E2,-4.429838E-3,1.9015186E1,-8.974634E-3,7.536702E1,1.1006859E2,-7.069116E-3,7.87936E-3,-1.1086284E-2,6.6910085E-4,-4.4566974E-2,-6.103613E-3,2.352061E-2,3.2699916E-3,-1.37820635E-2,-1.7575024E-2,4.241361E-4,-7.2616374E-4,1.6202306E-2,-2.5981124E-3,9.913928E-3,-1.0944064E-3,8.202918E-2],"split_indices":[33,33,4,28,5,25,20,0,34,33,28,5,1,6,19,0,14,0,12,7,33,0,23,0,12,0,3,23,0,0,0,0,0,0,0,0,0,0,0,0,0,0,0,0,0],"split_type":[0,0,0,0,0,0,0,0,0,0,0,0,0,0,0,0,0,0,0,0,0,0,0,0,0,0,0,0,0,0,0,0,0,0,0,0,0,0,0,0,0,0,0,0,0],"sum_hessian":[8.245903E2,4.1775705E2,4.068332E2,2.644839E2,1.532732E2,4.6604645E1,3.6022855E2,6.74758E0,2.577363E2,7.532953E1,7.794366E1,2.6176447E1,2.0428198E1,2.5999842E1,3.342287E2,2.4027068E2,1.746561E1,4.2475557E0,7.108197E1,5.1460487E1,2.6483171E1,3.7422063E0,2.243424E1,4.243218E0,1.618498E1,1.2162469E1,1.3837374E1,3.3024823E2,3.980485E0,8.489591E0,8.97602E0,1.3477448E1,5.7604523E1,4.748938E0,4.671155E1,2.2468078E0,2.4236364E1,2.0685202E1,1.7490388E0,2.2408068E0,1.3944173E1,1.7393782E0,1.2097995E1,1.4550177E1,3.1569806E2],"tree_param":{"num_deleted":"0","num_feature":"35","num_nodes":"45","size_leaf_vector":"1"}},{"base_weights":[-2.612603E-3,1.8273145E-1,-6.8981427E-1,-3.5201547E-1,3.7000751E-1,5.082733E-4,-7.008401E-1,-4.524466E-1,4.9361415E-2,-1.6879879E-1,5.3251326E-1,-7.106303E-1,4.927583E-5,7.4539506E-3,-5.032441E-1,1.3150918E-1,-8.733171E-3,8.690595E-2,-3.3660352E-1,6.023571E-1,-1.4515513E-1,-7.207081E-1,-0E0,-5.3309012E-2,2.6041751E-3,1.7443767E-2,-3.6584516E-3,1.79602E-2,-9.746913E-3,2.5361709E-3,-3.763707E-2,-7.0922608E-3,6.421446E-2,-1.7413309E-2,1.6820744E-3,-0E0,-7.26039E-2],"categories":[],"categories_nodes":[],"categories_segments":[],"categories_sizes":[],"default_left":[0,0,0,0,0,0,0,0,0,0,0,0,0,0,0,0,0,0,0,0,0,0,0,0,0,0,0,0,0,0,0,0,0,0,0,0,0],"id":4,"left_children":[1,3,5,7,9,-1,11,13,15,17,19,21,-1,-1,23,25,-1,27,29,31,33,35,-1,-1,-1,-1,-1,-1,-1,-1,-1,-1,-1,-1,-1,-1,-1],"loss_changes":[1.2980867E2,9.310922E1,2.712349E0,1.3005695E1,6.5589E1,0E0,2.224533E0,1.0004402E1,2.7608361E0,1.2757713E1,3.3762634E1,1.8071976E0,0E0,0E0,5.261402E0,1.7264202E0,0E0,4.6630597E0,3.575861E0,1.8284027E1,1.0497515E0,8.4710693E-1,0E0,0E0,0E0,0E0,0E0,0E0,0E0,0E0,0E0,0E0,0E0,0E0,0E0,0E0,0E0],"parents":[2147483647,0,0,1,1,2,2,3,3,4,4,6,6,7,7,8,8,9,9,10,10,11,11,14,14,15,15,17,17,18,18,19,19,20,20,21,21],"right_children":[2,4,6,8,10,-1,12,14,16,18,20,22,-1,-1,24,26,-1,28,30,32,34,36,-1,-1,-1,-1,-1,-1,-1,-1,-1,-1,-1,-1,-1,-1,-1],"split_conditions":[1.5E1,1.6611769E1,1.3E1,1E0,1.15163315E2,5.082733E-4,6.2E2,2.49E1,1.21E1,1.9973244E1,8.1E1,5.52E3,4.927583E-5,7.4539506E-3,5.303249E2,1.4098434E2,-8.733171E-3,3.435E-1,1.7551376E1,2.159329E0,4.8E1,1.4E0,-0E0,-5.3309012E-2,2.6041751E-3,1.7443767E-2,-3.6584516E-3,1.79602E-2,-9.746913E-3,2.5361709E-3,-3.763707E-2,-7.0922608E-3,6.421446E-2,-1.7413309E-2,1.6820744E-3,-0E0,-7.26039E-2],"split_indices":[8,4,4,34,6,0,22,28,14,4,0,9,0,0,25,6,0,15,2,8,24,18,0,0,0,0,0,0,0,0,0,0,0,0,0,0,0],"split_type":[0,0,0,0,0,0,0,0,0,0,0,0,0,0,0,0,0,0,0,0,0,0,0,0,0,0,0,0,0,0,0,0,0,0,0,0,0],"sum_hessian":[8.162099E2,6.9950244E2,1.1670751E2,1.5723338E2,5.4226904E2,1.2481668E0,1.1545934E2,1.1758057E2,3.9652817E1,1.2332958E2,4.1893945E2,1.1396858E2,1.4907583E0,4.4975266E0,1.1308304E2,3.1706425E1,7.946394E0,6.560696E1,5.772263E1,3.9120853E2,2.7730936E1,1.1150577E2,2.4628143E0,1.08154854E2,4.928188E0,2.6988876E1,4.7175474E0,4.8989574E1,1.6617384E1,6.810529E0,5.0912098E1,1.6059765E1,3.7514874E2,2.2392958E1,5.337979E0,1.4875613E0,1.100182E2],"tree_param":{"num_deleted":"0","num_feature":"35","num_nodes":"37","size_leaf_vector":"1"}},{"base_weights":[-3.0189302E-2,-5.7715327E-1,6.22532E-1,-7.6530415E-1,-1.4167956E-1,6.8409383E-1,-7.01784E-2,-8.0198973E-1,4.066574E-2,-3.051506E-1,8.248247E-2,-3.2906804E-2,7.2423005E-1,-1.4757697E-1,6.556938E-2,-8.306719E-1,-3.9651424E-2,-4.333459E-3,9.325512E-3,8.992498E-3,-3.7046403E-1,-1.3491002E-2,1.8040788E-1,-8.511942E-3,4.066473E-3,7.520124E-1,-4.78507E-3,-1.7273905E-2,1.4169636E-3,1.000353E-2,-2.4134777E-3,-8.578921E-2,-5.480664E-3,5.884722E-3,-1.0878396E-2,1.4780455E-3,-4.2047124E-2,2.4572715E-2,-8.239805E-3,7.794331E-2,-2.137393E-3],"categories":[],"categories_nodes":[],"categories_segments":[],"categories_sizes":[],"default_left":[0,0,0,0,0,0,0,0,0,0,0,0,0,0,0,0,0,0,0,0,0,0,0,0,0,0,0,0,0,0,0,0,0,0,0,0,0,0,0,0,0],"id":5,"left_children":[1,3,5,7,9,11,13,15,17,19,21,23,25,27,29,31,33,-1,-1,-1,35,-1,37,-1,-1,39,-1,-1,-1,-1,-1,-1,-1,-1,-1,-1,-1,-1,-1,-1,-1],"loss_changes":[3.62021E2,3.329344E1,2.5191833E1,1.4654022E1,1.33731E1,1.5637253E1,2.3863363E0,3.4871063E0,9.383802E-1,8.557648E0,6.7054524E0,8.4185237E-1,1.3291718E1,8.7738776E-1,6.597214E-1,1.375E0,1.5001869E0,0E0,0E0,0E0,4.613928E0,0E0,5.3264475E0,0E0,0E0,1.1155838E1,0E0,0E0,0E0,0E0,0E0,0E0,0E0,0E0,0E0,0E0,0E0,0E0,0E0,0E0,0E0],"parents":[2147483647,0,0,1,1,2,2,3,3,4,4,5,5,6,6,7,7,8,8,9,9,10,10,11,11,12,12,13,13,14,14,15,15,16,16,20,20,22,22,25,25],"right_children":[2,4,6,8,10,12,14,16,18,20,22,24,26,28,30,32,34,-1,-1,-1,36,-1,38,-1,-1,40,-1,-1,-1,-1,-1,-1,-1,-1,-1,-1,-1,-1,-1,-1,-1],"split_conditions":[1.4012101E1,7.1686025E0,1.5E1,2.62E1,3.6652523E1,2.159329E0,8.428185E1,1E0,7.430185E0,8E0,6.5053375E1,1.5472523E2,8.6E1,1.5064305E2,1.69E2,2.52E1,2.67E1,-4.333459E-3,9.325512E-3,8.992498E-3,1.665E1,-1.3491002E-2,1.5E1,-8.511942E-3,4.066473E-3,2E0,-4.78507E-3,-1.7273905E-2,1.4169636E-3,1.000353E-2,-2.4134777E-3,-8.578921E-2,-5.480664E-3,5.884722E-3,-1.0878396E-2,1.4780455E-3,-4.2047124E-2,2.4572715E-2,-8.239805E-3,7.794331E-2,-2.137393E-3],"split_indices":[33,33,8,30,5,8,7,34,17,33,7,22,0,24,19,31,26,0,0,0,12,0,8,0,0,32,0,0,0,0,0,0,0,0,0,0,0,0,0,0,0],"split_type":[0,0,0,0,0,0,0,0,0,0,0,0,0,0,0,0,0,0,0,0,0,0,0,0,0,0,0,0,0,0,0,0,0,0,0,0,0,0,0,0,0],"sum_hessian":[8.1350995E2,4.497447E2,3.6376523E2,2.595615E2,1.9018318E2,3.3654376E2,2.7221462E1,2.4992036E2,9.641143E0,9.166656E1,9.851663E1,1.7474438E1,3.1906934E2,1.6478508E1,1.0742955E1,2.3095547E2,1.8964891E1,3.1664197E0,6.474723E0,5.4864507E0,8.618011E1,1.5694696E1,8.282193E1,8.990265E0,8.484174E0,3.1174603E2,7.3233056E0,1.3729159E1,2.7493482E0,7.4943457E0,3.2486095E0,2.116682E2,1.928727E1,7.991488E0,1.0973403E1,1.5697347E1,7.0482765E1,7.4587296E1,8.234635E0,3.0156506E2,1.0180955E1],"tree_param":{"num_deleted":"0","num_feature":"35","num_nodes":"41","size_leaf_vector":"1"}},{"base_weights":[-1.1232358E-2,-5.634294E-1,5.5287516E-1,1.0107598E-1,-6.0055804E-1,6.094989E-1,-8.4793225E-2,1.390171E-2,-2.8427378E-3,-7.43674E-1,-1.5767635E-1,-1.7653981E-2,6.8301237E-1,4.5342933E-2,-1.4415169E-1,4.34893E-4,-7.682789E-2,-3.261909E-1,8.7617055E-2,-9.7593665E-2,7.060573E-2,-2.5082374E-2,7.23089E-1,-3.2628744E-3,8.634384E-3,-1.7093852E-2,1.4194342E-3,8.1075365E-3,-3.931173E-2,1.7815799E-2,-9.352414E-3,-1.4463504E-2,4.192067E-3,1.1326415E-2,-3.5360716E-3,-8.460957E-3,4.7684866E-3,7.557558E-2,-3.2794492E-3],"categories":[],"categories_nodes":[],"categories_segments":[],"categories_sizes":[],"default_left":[0,0,0,0,0,0,0,0,0,0,0,0,0,0,0,0,0,0,0,0,0,0,0,0,0,0,0,0,0,0,0,0,0,0,0,0,0,0,0],"id":6,"left_children":[1,3,5,7,9,11,13,-1,-1,15,17,19,21,23,25,-1,-1,27,29,31,33,35,37,-1,-1,-1,-1,-1,-1,-1,-1,-1,-1,-1,-1,-1,-1,-1,-1],"loss_changes":[3.1160553E2,1.9038483E1,2.3563293E1,1.0507466E0,1.87137E1,2.3457886E1,1.731238E0,0E0,0E0,7.449463E0,1.3404631E1,1.7403527E0,1.4516678E1,6.8865865E-1,8.9235854E-1,0E0,0E0,8.171425E0,4.6695576E0,1.5235116E0,1.0257196E0,9.513928E-1,1.3203461E1,0E0,0E0,0E0,0E0,0E0,0E0,0E0,0E0,0E0,0E0,0E0,0E0,0E0,0E0,0E0,0E0],"parents":[2147483647,0,0,1,1,2,2,3,3,4,4,5,5,6,6,9,9,10,10,11,11,12,12,13,13,14,14,17,17,18,18,19,19,20,20,21,21,22,22],"right_children":[2,4,6,8,10,12,14,-1,-1,16,18,20,22,24,26,-1,-1,28,30,32,34,36,38,-1,-1,-1,-1,-1,-1,-1,-1,-1,-1,-1,-1,-1,-1,-1,-1],"split_conditions":[1.2233281E1,2.67E1,1.5E1,9.2825226E1,7.1686025E0,1.6062204E1,3.749585E0,1.390171E-2,-2.8427378E-3,1.7E0,3.6652523E1,8.752685E1,2.159329E0,1.1041156E2,7.2096756E1,4.34893E-4,-7.682789E-2,8E0,1.4E1,8.2855995E1,1.0530144E2,3.1911726E1,2E0,-3.2628744E-3,8.634384E-3,-1.7093852E-2,1.4194342E-3,8.1075365E-3,-3.931173E-2,1.7815799E-2,-9.352414E-3,-1.4463504E-2,4.192067E-3,1.1326415E-2,-3.5360716E-3,-8.460957E-3,4.7684866E-3,7.557558E-2,-3.2794492E-3],"split_indices":[33,28,8,3,33,4,11,0,0,16,5,3,8,22,24,0,0,33,18,24,3,28,32,0,0,0,0,0,0,0,0,0,0,0,0,0,0,0,0],"split_type":[0,0,0,0,0,0,0,0,0,0,0,0,0,0,0,0,0,0,0,0,0,0,0,0,0,0,0,0,0,0,0,0,0,0,0,0,0,0,0],"sum_hessian":[8.003072E2,4.053796E2,3.9492758E2,1.0912296E1,3.9446732E2,3.6821643E2,2.6711153E1,8.73009E0,2.1822062E0,2.4509161E2,1.4937569E2,4.5178158E1,3.2303827E2,1.0486241E1,1.6224913E1,9.132533E0,2.3595909E2,7.141265E1,7.796304E1,2.4102438E1,2.107572E1,1.7971428E1,3.0506686E2,2.2455714E0,8.24067E0,1.24769945E1,3.747917E0,4.986359E0,6.642629E1,5.6759853E1,2.1203184E1,2.0640303E1,3.4621363E0,1.6844748E1,4.230973E0,8.492408E0,9.47902E0,2.9371335E2,1.1353496E1],"tree_param":{"num_deleted":"0","num_feature":"35","num_nodes":"39","size_leaf_vector":"1"}},{"base_weights":[-3.752431E-2,-5.398828E-1,4.9441123E-1,-6.840499E-1,-1.285251E-1,-7.910973E-2,5.4579467E-1,8.539167E-3,-7.252619E-2,-2.7193648E-1,7.3446326E-2,-1.3532147E-2,4.298833E-3,-6.667399E-2,5.8405346E-1,7.6434547E-3,-3.3241934E-1,-1.1350644E-2,1.6163671E-1,-1.1709564E-2,3.817282E-3,6.176722E-1,-4.774084E-2,-3.5818998E-2,2.5245536E-3,2.1235831E-2,-6.0845087E-3,6.4082734E-2,-4.910378E-3,-1.0269995E-2,4.3060007E-3],"categories":[],"categories_nodes":[],"categories_segments":[],"categories_sizes":[],"default_left":[0,0,0,0,0,0,0,0,0,0,0,0,0,0,0,0,0,0,0,0,0,0,0,0,0,0,0,0,0,0,0],"id":7,"left_children":[1,3,5,7,9,11,13,-1,-1,15,17,-1,-1,19,21,-1,23,-1,25,-1,-1,27,29,-1,-1,-1,-1,-1,-1,-1,-1],"loss_changes":[2.6742072E2,2.075879E1,1.9186028E1,1.8064209E1,9.663077E0,1.5383155E0,1.525531E1,0E0,0E0,6.4824314E0,4.8981376E0,0E0,0E0,1.1361117E0,1.3020447E1,0E0,2.805832E0,0E0,3.3524566E0,0E0,0E0,1.04301605E1,1.0703841E0,0E0,0E0,0E0,0E0,0E0,0E0,0E0,0E0],"parents":[2147483647,0,0,1,1,2,2,3,3,4,4,5,5,6,6,9,9,10,10,13,13,14,14,16,16,18,18,21,21,22,22],"right_children":[2,4,6,8,10,12,14,-1,-1,16,18,-1,-1,20,22,-1,24,-1,26,-1,-1,28,30,-1,-1,-1,-1,-1,-1,-1,-1],"split_conditions":[1.2233281E1,7.1686025E0,1.08E2,2.49E1,3.6652523E1,1.7545746E1,2.008E1,8.539167E-3,-7.252619E-2,8E0,6.5053375E1,-1.3532147E-2,4.298833E-3,7.450334E0,2E0,7.6434547E-3,5.2608716E2,-1.1350644E-2,2.4139492E1,-1.1709564E-2,3.817282E-3,1.54E1,3.7025585E1,-3.5818998E-2,2.5245536E-3,2.1235831E-2,-6.0845087E-3,6.4082734E-2,-4.910378E-3,-1.0269995E-2,4.3060007E-3],"split_indices":[33,33,6,28,5,30,1,0,0,33,7,0,0,17,32,0,22,0,4,0,0,14,33,0,0,0,0,0,0,0,0],"split_type":[0,0,0,0,0,0,0,0,0,0,0,0,0,0,0,0,0,0,0,0,0,0,0,0,0,0,0,0,0,0,0],"sum_hessian":[8.006838E2,4.1198868E2,3.886951E2,2.5418396E2,1.5780472E2,2.5923733E1,3.6277136E2,6.2387185E0,2.4794524E2,7.4918434E1,8.2886284E1,1.5943583E1,9.98015E0,1.542533E1,3.4734604E2,4.7354627E0,7.0182976E1,1.3731648E1,6.915464E1,8.967776E0,6.4575534E0,3.3342215E2,1.3923879E1,6.793704E1,2.2459335E0,6.3681488E1,5.473151E0,3.2744247E2,5.979679E0,7.3709474E0,6.5529313E0],"tree_param":{"num_deleted":"0","num_feature":"35","num_nodes":"31","size_leaf_vector":"1"}},{"base_weights":[-2.3922315E-2,1.391528E-1,-6.0342705E-1,-1.5155345E-1,3.9836034E-1,-6.168483E-1,2.5773203E-4,-3.6383882E-1,5.5627197E-2,-1.3731773E-1,5.047585E-1,-0E0,-6.382197E-1,5.484037E-2,-4.2778426E-1,-1.8443435E-1,1.7021678E-1,7.7410447E-3,-2.0563342E-1,-8.343088E-2,5.8095735E-1,1.2181606E-4,-6.48472E-1,1.0434666E-2,-4.1351444E-3,-4.3828912E-2,-0E0,-2.1756595E-2,-0E0,-1.202936E-2,2.624087E-2,2.237634E-3,-2.3144176E-2,-1.1289489E-2,2.301862E-3,6.275641E-2,-6.5480894E-3,-6.594414E-2,-0E0],"categories":[],"categories_nodes":[],"categories_segments":[],"categories_sizes":[],"default_left":[0,0,0,0,0,0,0,0,0,0,0,0,0,0,0,0,0,0,0,0,0,0,0,0,0,0,0,0,0,0,0,0,0,0,0,0,0,0,0],"id":8,"left_children":[1,3,5,7,9,11,-1,13,15,17,19,-1,21,23,25,27,29,-1,31,33,35,-1,37,-1,-1,-1,-1,-1,-1,-1,-1,-1,-1,-1,-1,-1,-1,-1,-1],"loss_changes":[9.278346E1,6.452733E1,2.5227737E0,2.1462013E1,3.226155E1,2.168068E0,0E0,8.8893585E0,1.150091E1,3.9150653E0,2.275003E1,0E0,2.0623245E0,1.0521346E0,1.0949516E0,8.928919E-1,1.0286966E1,0E0,1.5766788E0,7.5897676E-1,1.5453506E1,0E0,1.9438629E0,0E0,0E0,0E0,0E0,0E0,0E0,0E0,0E0,0E0,0E0,0E0,0E0,0E0,0E0,0E0,0E0],"parents":[2147483647,0,0,1,1,2,2,3,3,4,4,5,5,7,7,8,8,9,9,10,10,12,12,13,13,14,14,15,15,16,16,18,18,19,19,20,20,22,22],"right_children":[2,4,6,8,10,12,-1,14,16,18,20,-1,22,24,26,28,30,-1,32,34,36,-1,38,-1,-1,-1,-1,-1,-1,-1,-1,-1,-1,-1,-1,-1,-1,-1,-1],"split_conditions":[1.5E1,7.4102483E0,5.52E3,2.0054976E1,1.6062204E1,5.456685E-1,2.5773203E-4,2E0,3.0889528E0,2.74E1,6.5053375E1,-0E0,1.323881E1,3.4E1,9.562935E1,2.907983E0,1.6611769E1,7.7410447E-3,7.42E0,3.33609E1,8.1E1,1.2181606E-4,6.2E2,1.0434666E-2,-4.1351444E-3,-4.3828912E-2,-0E0,-2.1756595E-2,-0E0,-1.202936E-2,2.624087E-2,2.237634E-3,-2.3144176E-2,-1.1289489E-2,2.301862E-3,6.275641E-2,-6.5480894E-3,-6.594414E-2,-0E0],"split_indices":[8,17,9,24,4,13,0,16,8,28,7,0,4,29,7,16,4,0,17,2,0,0,22,0,0,0,0,0,0,0,0,0,0,0,0,0,0,0,0],"split_type":[0,0,0,0,0,0,0,0,0,0,0,0,0,0,0,0,0,0,0,0,0,0,0,0,0,0,0,0,0,0,0,0,0,0,0,0,0,0,0],"sum_hessian":[7.8804083E2,6.729358E2,1.15104996E2,3.349533E2,3.3798248E2,1.12474754E2,2.6302383E0,1.3047546E2,2.0447784E2,4.9633915E1,2.8834857E2,8.668946E0,1.0380581E2,1.7101933E1,1.13373535E2,4.3554222E1,1.6092363E2,5.233457E0,4.440046E1,3.0477087E1,2.578715E2,1.4894165E0,1.0231639E2,1.2557346E1,4.544586E0,1.0896788E2,4.4056582E0,2.2024801E1,2.1529419E1,2.8810104E1,1.3211353E2,1.9269737E0,4.2473484E1,2.6485458E1,3.9916296E0,2.4469609E2,1.3175396E1,1.0011161E2,2.2047834E0],"tree_param":{"num_deleted":"0","num_feature":"35","num_nodes":"39","size_leaf_vector":"1"}},{"base_weights":[-2.5675645E-2,1.2197585E-1,-5.602449E-1,-1.63941E-1,3.832625E-1,5.528939E-3,-5.9647524E-1,-3.0070877E-1,1.0190769E-1,-1.2302939E-1,4.8321286E-1,-4.780437E-3,6.42014E-3,5.290372E-4,-6.0798347E-1,-3.8056695E-1,-9.495988E-3,-1.7196432E-1,2.4690302E-1,-1.870942E-1,6.990224E-3,-7.3791414E-2,5.591852E-1,-6.198116E-1,1.1382962E-4,-4.022455E-2,3.2199465E-3,-1.5278414E-2,9.688349E-3,1.5909699E-3,-1.994444E-2,3.2291513E-2,-5.7368046E-3,-2.3927188E-2,2.4439783E-3,-1.1781532E-2,2.7599267E-3,6.067763E-2,-6.5236688E-3,-6.274174E-2,-0E0],"categories":[],"categories_nodes":[],"categories_segments":[],"categories_sizes":[],"default_left":[0,0,0,0,0,0,0,0,0,0,0,0,0,0,0,0,0,0,0,0,0,0,0,0,0,0,0,0,0,0,0,0,0,0,0,0,0,0,0,0,0],"id":9,"left_children":[1,3,5,7,9,11,13,15,17,19,21,-1,-1,-1,23,25,27,29,31,33,-1,35,37,39,-1,-1,-1,-1,-1,-1,-1,-1,-1,-1,-1,-1,-1,-1,-1,-1,-1],"loss_changes":[7.651673E1,6.3882843E1,5.2092743E0,1.9078419E1,2.8222393E1,6.6755587E-1,2.3038788E0,6.5742016E0,1.3055507E1,3.27241E0,2.0846542E1,0E0,0E0,0E0,2.1154785E0,3.8303413E0,4.173854E0,1.1859472E0,6.449087E0,2.3812113E0,0E0,1.0081877E0,1.4925835E1,1.0142899E0,0E0,0E0,0E0,0E0,0E0,0E0,0E0,0E0,0E0,0E0,0E0,0E0,0E0,0E0,0E0,0E0,0E0],"parents":[2147483647,0,0,1,1,2,2,3,3,4,4,5,5,6,6,7,7,8,8,9,9,10,10,14,14,15,15,16,16,17,17,18,18,19,19,21,21,22,22,23,23],"right_children":[2,4,6,8,10,12,14,16,18,20,22,-1,-1,-1,24,26,28,30,32,34,-1,36,38,40,-1,-1,-1,-1,-1,-1,-1,-1,-1,-1,-1,-1,-1,-1,-1,-1,-1],"split_conditions":[1.5E1,7.4102483E0,3.3E0,1.104813E0,1.6062204E1,8.313021E1,1.3E1,3.685645E1,3.9507086E0,1.9811703E1,6.5053375E1,-4.780437E-3,6.42014E-3,5.290372E-4,6.2E2,1.4036552E1,1.2021465E2,1.2750331E0,4.8E0,1E0,6.990224E-3,4E1,8.1E1,4.01E1,1.1382962E-4,-4.022455E-2,3.2199465E-3,-1.5278414E-2,9.688349E-3,1.5909699E-3,-1.994444E-2,3.2291513E-2,-5.7368046E-3,-2.3927188E-2,2.4439783E-3,-1.1781532E-2,2.7599267E-3,6.067763E-2,-6.5236688E-3,-6.274174E-2,-0E0],"split_indices":[8,17,11,21,4,7,4,5,11,30,7,0,0,0,22,8,6,21,11,34,0,24,0,31,0,0,0,0,0,0,0,0,0,0,0,0,0,0,0,0,0],"split_type":[0,0,0,0,0,0,0,0,0,0,0,0,0,0,0,0,0,0,0,0,0,0,0,0,0,0,0,0,0,0,0,0,0,0,0,0,0,0,0,0,0],"sum_hessian":[7.772947E2,6.6807874E2,1.0921593E2,3.349661E2,3.3311267E2,1.0011658E1,9.920427E1,2.1500435E2,1.1996175E2,4.9463455E1,2.836492E2,6.019496E0,3.9921615E0,1.2448871E0,9.795938E1,1.419583E2,7.304605E1,3.2700073E1,8.726167E1,4.3295574E1,6.167883E0,3.280939E1,2.5083981E2,9.5982315E1,1.977068E0,1.3959816E2,2.360139E0,1.6542532E1,5.650352E1,4.9018683E0,2.7798206E1,6.754651E1,1.9715164E1,2.8002918E1,1.5292657E1,1.8458277E1,1.4351115E1,2.3718948E2,1.3650325E1,9.3836174E1,2.1461437E0],"tree_param":{"num_deleted":"0","num_feature":"35","num_nodes":"41","size_leaf_vector":"1"}},{"base_weights":[-5.0281733E-2,9.6276775E-2,-5.6824845E-1,-2.508534E-1,2.5321192E-1,-0E0,-5.951331E-1,-3.4621844E-1,5.4190908E-2,-2.688068E-1,3.5252088E-1,-0E0,-6.0457194E-1,6.6915476E-3,-3.9181295E-1,1.2959492E-1,-7.233973E-2,-2.9642946E-1,2.3429214E-3,-1.3583316E-1,4.4347832E-1,-6.120169E-2,-0E0,-4.190721E-2,2.5367462E-3,1.7329339E-2,-4.2585405E-3,-1.0152871E-2,1.8992595E-3,-3.2118812E-2,1.956707E-3,3.1307265E-3,-1.9403359E-2,-7.7838856E-3,5.191174E-2],"categories":[],"categories_nodes":[],"categories_segments":[],"categories_sizes":[],"default_left":[0,0,0,0,0,0,0,0,0,0,0,0,0,0,0,0,0,0,0,0,0,0,0,0,0,0,0,0,0,0,0,0,0,0,0],"id":10,"left_children":[1,3,5,7,9,-1,11,13,15,17,19,-1,21,-1,23,25,27,29,-1,31,33,-1,-1,-1,-1,-1,-1,-1,-1,-1,-1,-1,-1,-1,-1],"loss_changes":[7.168544E1,4.7704353E1,3.252617E0,1.0446474E1,3.93409E1,0E0,1.6179962E0,7.3323593E0,2.4425182E0,2.153716E0,2.976384E1,0E0,1.0448151E0,0E0,4.031975E0,1.8908758E0,5.843084E-1,2.0622368E0,0E0,2.3037822E0,2.3009956E1,0E0,0E0,0E0,0E0,0E0,0E0,0E0,0E0,0E0,0E0,0E0,0E0,0E0,0E0],"parents":[2147483647,0,0,1,1,2,2,3,3,4,4,6,6,7,7,8,8,9,9,10,10,12,12,14,14,15,15,16,16,17,17,19,19,20,20],"right_children":[2,4,6,8,10,-1,12,14,16,18,20,-1,22,-1,24,26,28,30,-1,32,34,-1,-1,-1,-1,-1,-1,-1,-1,-1,-1,-1,-1,-1,-1],"split_conditions":[1.5E1,1.7066133E1,3.3E0,1E0,9.2333335E-1,-0E0,1.323881E1,2.74E1,3.52E-1,1.4036552E1,3.0889528E0,-0E0,6.2E2,6.6915476E-3,5.303249E2,8.2E1,3.87E0,7.619425E0,2.3429214E-3,1.68E2,1.32100315E1,-6.120169E-2,-0E0,-4.190721E-2,2.5367462E-3,1.7329339E-2,-4.2585405E-3,-1.0152871E-2,1.8992595E-3,-3.2118812E-2,1.956707E-3,3.1307265E-3,-1.9403359E-2,-7.7838856E-3,5.191174E-2],"split_indices":[8,4,11,34,20,0,4,28,15,8,8,0,22,0,25,0,20,17,0,23,30,0,0,0,0,0,0,0,0,0,0,0,0,0,0],"split_type":[0,0,0,0,0,0,0,0,0,0,0,0,0,0,0,0,0,0,0,0,0,0,0,0,0,0,0,0,0,0,0,0,0,0,0],"sum_hessian":[7.6603143E2,6.5903864E2,1.0699282E2,1.8456834E2,4.7447028E2,9.095615E0,9.78972E1,1.3282433E2,5.174402E1,4.6946823E1,4.2752347E2,1.7043384E0,9.619286E1,6.3740544E0,1.2645028E2,3.5857018E1,1.5886998E1,4.4707886E1,2.238938E0,5.7652706E1,3.6987076E2,9.423807E1,1.9547976E0,1.2051899E2,5.9312863E0,3.271543E1,3.1415887E0,1.1876394E1,4.0106044E0,4.2870586E1,1.8372992E0,2.2387108E1,3.52656E1,4.4821888E1,3.2504886E2],"tree_param":{"num_deleted":"0","num_feature":"35","num_nodes":"35","size_leaf_vector":"1"}},{"base_weights":[-4.9680647E-2,-4.6866414E-1,4.6902955E-1,-6.712584E-1,-1.3632123E-1,-8.3191514E-2,5.26226E-1,5.410099E-3,-7.0122993E-1,-3.432746E-1,7.302323E-2,-1.3864502E-2,3.6531016E-2,-4.849056E-2,5.7489026E-1,-0E0,-7.09041E-2,3.5871495E-3,-3.7227732E-1,2.0050146E-1,-1.9950858E-1,-4.5006927E-3,8.787801E-3,-1.0412364E-1,4.8989337E-3,-3.737793E-2,6.100158E-1,-3.9960776E-2,-0E0,-1.2334903E-2,3.2129288E-2,6.2558084E-4,-2.1900484E-2,3.1952558E-3,-1.4609444E-2,-8.54285E-3,3.7012752E-3,-1.565533E-3,6.45027E-2],"categories":[],"categories_nodes":[],"categories_segments":[],"categories_sizes":[],"default_left":[0,0,0,0,0,0,0,0,0,0,0,0,0,0,0,0,0,0,0,0,0,0,0,0,0,0,0,0,0,0,0,0,0,0,0,0,0,0,0],"id":11,"left_children":[1,3,5,7,9,11,13,-1,15,17,19,-1,21,23,25,-1,-1,-1,27,29,31,-1,-1,33,-1,35,37,-1,-1,-1,-1,-1,-1,-1,-1,-1,-1,-1,-1],"loss_changes":[2.1004073E2,2.571067E1,1.8577858E1,1.1001419E1,1.6986765E1,1.4423741E0,1.4780174E1,0E0,1.2827454E0,3.7047882E0,1.2447178E1,0E0,9.12292E-1,1.2302185E0,1.1183151E1,0E0,0E0,0E0,2.0447807E0,1.2689175E1,8.516083E-1,0E0,0E0,1.2468466E0,0E0,7.710253E-1,9.824158E0,0E0,0E0,0E0,0E0,0E0,0E0,0E0,0E0,0E0,0E0,0E0,0E0],"parents":[2147483647,0,0,1,1,2,2,3,3,4,4,5,5,6,6,8,8,9,9,10,10,12,12,13,13,14,14,18,18,19,19,20,20,23,23,25,25,26,26],"right_children":[2,4,6,8,10,12,14,-1,16,18,20,-1,22,24,26,-1,-1,-1,28,30,32,-1,-1,34,-1,36,38,-1,-1,-1,-1,-1,-1,-1,-1,-1,-1,-1,-1],"split_conditions":[1.4012101E1,6.0581183E0,7.312091E1,2.224091E1,9.018488E1,1.8007578E1,2.078129E1,5.410099E-3,1.6E0,6.918818E0,2.2E1,-1.3864502E-2,6.4E1,7.4604855E0,2.159329E0,-0E0,-7.09041E-2,3.5871495E-3,3.7210068E1,1.7066133E1,1E1,-4.5006927E-3,8.787801E-3,2.9665475E0,4.8989337E-3,1.4019661E2,1.0068372E1,-3.9960776E-2,-0E0,-1.2334903E-2,3.2129288E-2,6.2558084E-4,-2.1900484E-2,3.1952558E-3,-1.4609444E-2,-8.54285E-3,3.7012752E-3,-1.565533E-3,6.45027E-2],"split_indices":[33,33,3,28,3,4,1,0,16,33,4,0,3,17,8,0,0,0,5,4,29,0,0,8,0,22,29,0,0,0,0,0,0,0,0,0,0,0,0],"split_type":[0,0,0,0,0,0,0,0,0,0,0,0,0,0,0,0,0,0,0,0,0,0,0,0,0,0,0,0,0,0,0,0,0,0,0,0,0,0,0],"sum_hessian":[7.6531305E2,4.2975687E2,3.355562E2,2.0177153E2,2.2798532E2,2.5586906E1,3.099693E2,3.4878259E0,1.982837E2,8.487782E1,1.431075E2,1.2393704E1,1.3193203E1,2.2621494E1,2.873478E2,3.9842842E0,1.9429942E2,1.8983533E0,8.297947E1,1.18007996E2,2.5099506E1,2.343663E0,1.084954E1,1.6594065E1,6.027428E0,1.3698026E1,2.7364978E2,7.161127E1,1.13682E1,2.9233845E1,8.877415E1,3.6108894E0,2.1488617E1,3.9219506E0,1.2672115E1,7.4748073E0,6.2232184E0,1.5917444E1,2.5773233E2],"tree_param":{"num_deleted":"0","num_feature":"35","num_nodes":"39","size_leaf_vector":"1"}},{"base_weights":[-3.0078707E-2,-3.9693776E-1,5.077615E-1,-6.046767E-1,-1.2302344E-1,-5.7529192E-2,5.619011E-1,-6.7991495E-1,2.4165181E-2,5.770935E-2,-3.3088332E-1,-1.17423115E-2,4.324525E-2,6.0761315E-1,-2.2147765E-2,-6.95317E-2,-6.5110405E-3,1.3938238E-1,-1.1370542E-2,-1.7713341E-1,1.9483866E-1,5.1606665E-3,-3.6905456E-1,-3.3294328E-3,8.358198E-3,6.3108987E-1,-3.5795586E-3,4.2208857E-3,-7.091025E-2,-5.851704E-3,4.260038E-3,1.6895927E-2,-2.0825188E-3,1.897837E-3,-2.029349E-2,-1.6425593E-2,3.0830836E-2,-4.0056735E-2,2.041043E-3,6.565272E-2,-2.5259682E-3,1.8235681E-3,-9.929559E-3],"categories":[],"categories_nodes":[],"categories_segments":[],"categories_sizes":[],"default_left":[0,0,0,0,0,0,0,0,0,0,0,0,0,0,0,0,0,0,0,0,0,0,0,0,0,0,0,0,0,0,0,0,0,0,0,0,0,0,0,0,0,0,0],"id":12,"left_children":[1,3,5,7,9,11,13,15,17,19,21,-1,23,25,27,-1,29,31,-1,33,35,-1,37,-1,-1,39,-1,-1,41,-1,-1,-1,-1,-1,-1,-1,-1,-1,-1,-1,-1,-1,-1],"loss_changes":[1.8990063E2,2.421125E1,1.5729355E1,1.6302116E1,1.6196415E1,1.3264701E0,1.1769493E1,1.6375046E0,3.624364E0,1.2554042E1,5.009466E0,0E0,6.769496E-1,8.093674E0,7.097457E-1,0E0,5.421066E-1,1.0588455E0,0E0,1.3467798E0,1.4515426E1,0E0,3.5080376E0,0E0,0E0,7.991516E0,0E0,0E0,5.5404407E-1,0E0,0E0,0E0,0E0,0E0,0E0,0E0,0E0,0E0,0E0,0E0,0E0,0E0,0E0],"parents":[2147483647,0,0,1,1,2,2,3,3,4,4,5,5,6,6,7,7,8,8,9,9,10,10,12,12,13,13,14,14,16,16,17,17,19,19,20,20,22,22,25,25,28,28],"right_children":[2,4,6,8,10,12,14,16,18,20,22,-1,24,26,28,-1,30,32,-1,34,36,-1,38,-1,-1,40,-1,-1,42,-1,-1,-1,-1,-1,-1,-1,-1,-1,-1,-1,-1,-1,-1],"split_conditions":[1.7365156E1,6.0581183E0,7.312091E1,1.922428E1,2.0937381E2,1.8007578E1,1.15E2,5.8671674E2,1.778033E1,8.752685E1,6.918818E0,-1.17423115E-2,6.4E1,3.75E3,2.1E1,-6.95317E-2,3.1911726E1,1.525E1,-1.1370542E-2,5.997035E-1,7.3108273E0,5.1606665E-3,6.62E2,-3.3294328E-3,8.358198E-3,1.5E2,-3.5795586E-3,4.2208857E-3,6.25E1,-5.851704E-3,4.260038E-3,1.6895927E-2,-2.0825188E-3,1.897837E-3,-2.029349E-2,-1.6425593E-2,3.0830836E-2,-4.0056735E-2,2.041043E-3,6.565272E-2,-2.5259682E-3,1.8235681E-3,-9.929559E-3],"split_indices":[33,33,3,30,19,4,3,23,4,3,33,0,3,9,2,0,28,18,0,13,17,0,23,0,0,10,0,0,7,0,0,0,0,0,0,0,0,0,0,0,0,0,0],"split_type":[0,0,0,0,0,0,0,0,0,0,0,0,0,0,0,0,0,0,0,0,0,0,0,0,0,0,0,0,0,0,0,0,0,0,0,0,0,0,0,0,0,0,0],"sum_hessian":[7.608543E2,4.690048E2,2.9184952E2,1.9597266E2,2.7303214E2,2.334672E1,2.685028E2,1.6919739E2,2.677527E1,1.8211223E2,9.09199E1,1.0505403E1,1.2841317E1,2.4685928E2,2.1643507E1,1.6078096E2,8.416437E0,1.7939806E1,8.835465E0,5.3693584E1,1.2841864E2,2.679072E0,8.824082E1,1.9013039E0,1.0940014E1,2.415157E2,5.3435917E0,6.2832413E0,1.5360265E1,4.6755643E0,3.7408726E0,1.5801728E1,2.1380773E0,4.8112707E0,4.8882313E1,1.7972162E1,1.1044649E2,8.13736E1,6.8672285E0,2.3394548E2,7.570218E0,3.837042E0,1.1523223E1],"tree_param":{"num_deleted":"0","num_feature":"35","num_nodes":"43","size_leaf_vector":"1"}},{"base_weights":[-7.036603E-2,-3.7235528E-1,1.2756294E-1,-4.68015E-1,2.4106147E-2,2.3321927E-1,-3.0719557E-1,1.5618615E-3,-4.8184726E-1,-1.13649955E-2,1.17225714E-1,-2.4923238E-1,3.5156086E-1,1.5661365E-3,-3.416119E-1,-5.053837E-1,-0E0,-5.617694E-2,1.8103373E-1,-2.8955677E-1,9.749857E-3,4.205803E-1,-1.6439828E-1,5.193131E-4,-3.5487797E-2,6.324544E-4,-5.1499397E-2,5.4349015E-3,-5.7874336E-3,4.0217317E-3,-1.0498871E-2,-1.7510218E-3,2.0538209E-2,1.2878174E-3,-3.108263E-2,6.2555796E-3,-4.6946085E-3,4.8162825E-2,-5.196879E-3,2.728944E-3,-1.9829158E-2],"categories":[],"categories_nodes":[],"categories_segments":[],"categories_sizes":[],"default_left":[0,0,0,0,0,0,0,0,0,0,0,0,0,0,0,0,0,0,0,0,0,0,0,0,0,0,0,0,0,0,0,0,0,0,0,0,0,0,0,0,0],"id":13,"left_children":[1,3,5,7,9,11,13,-1,15,-1,17,19,21,-1,23,25,27,29,31,33,35,37,39,-1,-1,-1,-1,-1,-1,-1,-1,-1,-1,-1,-1,-1,-1,-1,-1,-1,-1],"loss_changes":[5.57962E1,1.5377636E1,3.4003624E1,3.227005E0,3.4374E0,3.9126747E1,2.59274E0,0E0,3.1527557E0,0E0,2.8159926E0,2.2461805E0,2.3864498E1,0E0,1.2149906E0,2.2227325E0,6.767436E-1,1.0177648E0,1.2170649E0,1.6382408E0,6.539614E-1,1.57206955E1,1.5274777E0,0E0,0E0,0E0,0E0,0E0,0E0,0E0,0E0,0E0,0E0,0E0,0E0,0E0,0E0,0E0,0E0,0E0,0E0],"parents":[2147483647,0,0,1,1,2,2,3,3,4,4,5,5,6,6,8,8,10,10,11,11,12,12,14,14,15,15,16,16,17,17,18,18,19,19,20,20,21,21,22,22],"right_children":[2,4,6,8,10,12,14,-1,16,-1,18,20,22,-1,24,26,28,30,32,34,36,38,40,-1,-1,-1,-1,-1,-1,-1,-1,-1,-1,-1,-1,-1,-1,-1,-1,-1,-1],"split_conditions":[3.650475E1,1E0,1.5E1,2.49E1,1.491251E0,3.0889528E0,3.3E0,1.5618615E-3,3.7826057E1,-1.13649955E-2,6.100242E-1,9.112708E1,4.2716665E0,1.5661365E-3,1.4E1,3.469784E1,1.79E2,1.305E2,4.05E0,1.3074547E2,7.623221E1,7.6E1,3.66E1,5.193131E-4,-3.5487797E-2,6.324544E-4,-5.1499397E-2,5.4349015E-3,-5.7874336E-3,4.0217317E-3,-1.0498871E-2,-1.7510218E-3,2.0538209E-2,1.2878174E-3,-3.108263E-2,6.2555796E-3,-4.6946085E-3,4.8162825E-2,-5.196879E-3,2.728944E-3,-1.9829158E-2],"split_indices":[5,34,8,28,20,8,11,0,2,0,21,27,20,0,4,5,23,10,18,10,7,0,5,0,0,0,0,0,0,0,0,0,0,0,0,0,0,0,0,0,0],"split_type":[0,0,0,0,0,0,0,0,0,0,0,0,0,0,0,0,0,0,0,0,0,0,0,0,0,0,0,0,0,0,0,0,0,0,0,0,0,0,0,0,0],"sum_hessian":[7.499159E2,2.6401807E2,4.8589783E2,2.001898E2,6.3828278E1,4.3004398E2,5.5853848E1,3.1970963E0,1.969927E2,1.2520259E1,5.1308018E1,6.1257378E1,3.687866E2,7.830927E0,4.8022923E1,1.823179E2,1.4674801E1,1.2802835E1,3.8505184E1,4.6130352E1,1.5127026E1,3.43289E2,2.5497604E1,1.2341063E0,4.6788815E1,2.0730288E0,1.8024487E2,6.910906E0,7.763895E0,3.3357694E0,9.467066E0,2.7876754E0,3.5717506E1,2.5341172E0,4.3596233E1,1.1613091E1,3.5139341E0,3.0418643E2,3.9102543E1,2.3254673E0,2.3172138E1],"tree_param":{"num_deleted":"0","num_feature":"35","num_nodes":"41","size_leaf_vector":"1"}},{"base_weights":[-4.2322025E-2,-3.7647808E-1,4.6418095E-1,-5.2966607E-1,-1.1983174E-1,-8.156087E-2,5.166382E-1,-0E0,-6.030877E-1,5.44631E-2,-2.999249E-1,-1.1186937E-1,2.2525606E-3,-4.3570967E-3,5.51919E-1,-1.1981125E-2,1.0815045E-1,-6.233525E-1,-0E0,1.4178762E-1,-1.5805475E-1,-3.7239736E-1,3.336471E-2,1.0884273E-3,-1.3306074E-2,5.7794684E-1,-4.049241E-3,1.6664334E-2,-5.1376596E-3,-6.3252494E-2,6.5957167E-4,2.2594435E-2,-1.3033638E-2,-1.9154673E-2,2.5619972E-3,-4.145094E-2,1.8286532E-3,9.344528E-3,-5.5427277E-3,5.9519093E-2,-3.7370808E-3],"categories":[],"categories_nodes":[],"categories_segments":[],"categories_sizes":[],"default_left":[0,0,0,0,0,0,0,0,0,0,0,0,0,0,0,0,0,0,0,0,0,0,0,0,0,0,0,0,0,0,0,0,0,0,0,0,0,0,0,0,0],"id":14,"left_children":[1,3,5,7,9,11,13,15,17,19,21,23,-1,-1,25,-1,27,29,-1,31,33,35,37,-1,-1,39,-1,-1,-1,-1,-1,-1,-1,-1,-1,-1,-1,-1,-1,-1,-1],"loss_changes":[1.6052657E2,1.5254135E1,1.5520683E1,1.2641586E1,1.2652477E1,7.1357894E-1,1.0063271E1,3.0956535E0,3.4071121E0,6.9798613E0,6.0982285E0,5.676826E-1,0E0,0E0,8.264061E0,0E0,2.1499033E0,2.6281662E0,0E0,8.48302E0,1.3860998E0,3.857067E0,1.210585E0,0E0,0E0,6.419319E0,0E0,0E0,0E0,0E0,0E0,0E0,0E0,0E0,0E0,0E0,0E0,0E0,0E0,0E0,0E0],"parents":[2147483647,0,0,1,1,2,2,3,3,4,4,5,5,6,6,7,7,8,8,9,9,10,10,11,11,14,14,16,16,17,17,19,19,20,20,21,21,22,22,25,25],"right_children":[2,4,6,8,10,12,14,16,18,20,22,24,-1,-1,26,-1,28,30,-1,32,34,36,38,-1,-1,40,-1,-1,-1,-1,-1,-1,-1,-1,-1,-1,-1,-1,-1,-1,-1],"split_conditions":[1.7365156E1,3.6601887E1,2.0389585E1,2.1E0,4.193331E0,3.33609E1,2.159329E0,2.3161327E1,2.4158672E1,1.5E1,1.1282161E1,2E1,2.2525606E-3,-4.3570967E-3,3.75E3,-1.1981125E-2,1.45743065E1,5.333E1,-0E0,2.9E1,4.2E3,2.757719E0,2.4929248E3,1.0884273E-3,-1.3306074E-2,4.19E2,-4.049241E-3,1.6664334E-2,-5.1376596E-3,-6.3252494E-2,6.5957167E-4,2.2594435E-2,-1.3033638E-2,-1.9154673E-2,2.5619972E-3,-4.145094E-2,1.8286532E-3,9.344528E-3,-5.5427277E-3,5.9519093E-2,-3.7370808E-3],"split_indices":[33,5,1,16,11,2,8,1,30,8,33,33,0,0,9,0,18,1,0,2,9,21,9,0,0,19,0,0,0,0,0,0,0,0,0,0,0,0,0,0,0],"split_type":[0,0,0,0,0,0,0,0,0,0,0,0,0,0,0,0,0,0,0,0,0,0,0,0,0,0,0,0,0,0,0,0,0,0,0,0,0,0,0,0,0],"sum_hessian":[7.457194E2,4.6595776E2,2.7976166E2,2.2273482E2,2.4322295E2,1.7995983E1,2.617657E2,3.9041103E1,1.8369371E2,1.5622932E2,8.699363E1,1.5587259E1,2.408724E0,1.2437257E1,2.4932841E2,1.2746501E1,2.6294601E1,1.7431651E2,9.377198E0,1.3765414E2,1.857518E1,6.428225E1,2.2711382E1,2.508079E0,1.3079181E1,2.4279094E2,6.537471E0,2.0562662E1,5.731939E0,1.729763E2,1.3402145E0,1.2090734E2,1.6746798E1,1.6690351E1,1.8848274E0,5.4832977E1,9.449267E0,1.7137194E1,5.574188E0,2.4093492E2,1.8560288E0],"tree_param":{"num_deleted":"0","num_feature":"35","num_nodes":"41","size_leaf_vector":"1"}},{"base_weights":[-7.138412E-2,-4.4290116E-1,3.4095997E-1,7.0287965E-2,-4.6941662E-1,6.4591067E-3,4.6539664E-1,-2.6941183E-3,1.0699682E-2,-0E0,-5.22025E-1,-1.399233E-1,1.3966826E-1,-8.619751E-2,5.138318E-1,-1.3652647E-1,1.1570659E-1,-6.0294446E-2,-1.06335975E-1,2.3166154E-2,-1.9845326E-1,1.9519001E-1,-6.1249887E-3,-1.1425122E-2,1.8516714E-3,-2.4400515E-2,5.563688E-1,-1.7081311E-2,2.4310637E-3,-3.9303773E-3,1.6375447E-2,-2.0729376E-2,3.047815E-3,7.007209E-3,-4.4008335E-3,-2.1334283E-2,6.487298E-4,-5.089181E-3,2.5982663E-2,3.9404724E-3,-7.6195733E-3,-2.533041E-3,5.9159752E-2],"categories":[],"categories_nodes":[],"categories_segments":[],"categories_sizes":[],"default_left":[0,0,0,0,0,0,0,0,0,0,0,0,0,0,0,0,0,0,0,0,0,0,0,0,0,0,0,0,0,0,0,0,0,0,0,0,0,0,0,0,0,0,0],"id":15,"left_children":[1,3,5,7,9,11,13,-1,-1,15,17,19,21,23,25,27,29,-1,31,33,35,37,-1,-1,-1,39,41,-1,-1,-1,-1,-1,-1,-1,-1,-1,-1,-1,-1,-1,-1,-1,-1],"loss_changes":[1.4352516E2,1.0303787E1,1.8051563E1,7.572568E-1,1.1300232E1,6.364936E0,1.3567154E1,0E0,0E0,3.963447E0,7.2328873E0,2.106503E0,3.2488003E0,6.312673E-1,9.118477E0,1.2129815E0,1.7484511E0,0E0,3.4738216E0,7.306513E-1,7.370844E-1,4.117335E0,0E0,0E0,0E0,7.243706E-1,8.1826935E0,0E0,0E0,0E0,0E0,0E0,0E0,0E0,0E0,0E0,0E0,0E0,0E0,0E0,0E0,0E0,0E0],"parents":[2147483647,0,0,1,1,2,2,3,3,4,4,5,5,6,6,9,9,10,10,11,11,12,12,13,13,14,14,15,15,16,16,18,18,19,19,20,20,21,21,25,25,26,26],"right_children":[2,4,6,8,10,12,14,-1,-1,16,18,20,22,24,26,28,30,-1,32,34,36,38,-1,-1,-1,40,42,-1,-1,-1,-1,-1,-1,-1,-1,-1,-1,-1,-1,-1,-1,-1,-1],"split_conditions":[1.2233281E1,2.67E1,2.0106318E1,2.641157E1,2.1E0,2.2106928E1,2.008E1,-2.6941183E-3,1.0699682E-2,2.0267644E0,3.690681E1,1.5992651E1,3.725E1,7.4836183E0,7.297791E1,1.44E2,6.5053375E1,-6.0294446E-2,7.256547E1,1.3E1,1.1310431E3,3.645824E1,-6.1249887E-3,-1.1425122E-2,1.8516714E-3,2.8E0,1.21073105E2,-1.7081311E-2,2.4310637E-3,-3.9303773E-3,1.6375447E-2,-2.0729376E-2,3.047815E-3,7.007209E-3,-4.4008335E-3,-2.1334283E-2,6.487298E-4,-5.089181E-3,2.5982663E-2,3.9404724E-3,-7.6195733E-3,-2.533041E-3,5.9159752E-2],"split_indices":[33,28,33,26,16,24,1,0,0,20,5,33,5,17,3,25,7,0,7,8,23,5,0,0,0,16,23,0,0,0,0,0,0,0,0,0,0,0,0,0,0,0,0],"split_type":[0,0,0,0,0,0,0,0,0,0,0,0,0,0,0,0,0,0,0,0,0,0,0,0,0,0,0,0,0,0,0,0,0,0,0,0,0,0,0,0,0,0,0],"sum_hessian":[7.376503E2,3.8541272E2,3.5223764E2,8.971826E0,3.764409E2,1.26206406E2,2.2603122E2,2.2854772E0,6.686349E0,4.972306E1,3.2671783E2,5.415197E1,7.2054436E1,1.0285511E1,2.1574571E2,1.809117E1,3.1631891E1,2.3376059E2,9.295724E1,2.574636E1,2.8405607E1,6.258721E1,9.467227E0,8.460935E0,1.8245766E0,1.7202768E1,1.9854294E2,1.4924536E1,3.1666334E0,6.8662786E0,2.4765614E1,2.8051672E1,6.490557E1,2.1386127E1,4.3602324E0,2.7208439E1,1.1971691E0,1.42248E1,4.836241E1,9.775655E0,7.4271145E0,1.1320973E1,1.8722197E2],"tree_param":{"num_deleted":"0","num_feature":"35","num_nodes":"43","size_leaf_vector":"1"}},{"base_weights":[-5.4640044E-2,-4.5275593E-1,2.9665846E-1,9.280718E-3,-4.8624328E-1,-5.3441983E-2,3.922608E-1,2.3300923E-2,-5.354873E-1,-1.7622584E-1,8.26953E-2,-1.0365195E-1,4.5531613E-1,-7.864923E-3,1.0317227E-1,-5.555288E-1,2.336015E-3,-2.1095023E-1,2.208641E-3,-6.4444416E-3,1.483749E-1,2.7125261E-3,-1.369255E-1,5.050706E-1,-6.60096E-2,-3.5432992E-3,1.5107596E-2,-5.622963E-2,5.393386E-4,7.050294E-5,-2.211908E-2,1.9330023E-2,-4.5630313E-3,-1.6185934E-2,1.7583438E-3,5.7572283E-2,-0E0,3.2567512E-3,-1.1126971E-2],"categories":[],"categories_nodes":[],"categories_segments":[],"categories_sizes":[],"default_left":[0,0,0,0,0,0,0,0,0,0,0,0,0,0,0,0,0,0,0,0,0,0,0,0,0,0,0,0,0,0,0,0,0,0,0,0,0,0,0],"id":16,"left_children":[1,3,5,-1,7,9,11,13,15,17,19,21,23,-1,25,27,-1,29,-1,-1,31,-1,33,35,37,-1,-1,-1,-1,-1,-1,-1,-1,-1,-1,-1,-1,-1,-1],"loss_changes":[1.2858284E2,1.2695358E1,1.9032444E1,0E0,1.2284782E1,4.7623935E0,1.769629E1,1.9027268E0,6.1805344E0,1.5969605E0,2.5410566E0,1.026069E0,1.3591583E1,0E0,1.462407E0,2.3055344E0,0E0,5.1828957E-1,0E0,0E0,2.2704716E0,0E0,9.0060735E-1,1.2262283E1,9.749988E-1,0E0,0E0,0E0,0E0,0E0,0E0,0E0,0E0,0E0,0E0,0E0,0E0,0E0,0E0],"parents":[2147483647,0,0,1,1,2,2,4,4,5,5,6,6,7,7,8,8,9,9,10,10,11,11,12,12,14,14,15,15,17,17,20,20,22,22,23,23,24,24],"right_children":[2,4,6,-1,8,10,12,14,16,18,20,22,24,-1,26,28,-1,30,-1,-1,32,-1,34,36,38,-1,-1,-1,-1,-1,-1,-1,-1,-1,-1,-1,-1,-1,-1],"split_conditions":[1.0360636E1,2.49E1,1.7066133E1,9.280718E-3,2E0,8.507168E1,8.54E-1,3.0800177E1,4.7642838E2,5.57118E1,5.0352854E-1,1.31E2,1.5E1,-7.864923E-3,8.1050694E-1,6.24E-1,2.336015E-3,1.28E1,2.208641E-3,-6.4444416E-3,1.265E1,2.7125261E-3,7.58E0,1.445E2,7.65E-1,-3.5432992E-3,1.5107596E-2,-5.622963E-2,5.393386E-4,7.050294E-5,-2.211908E-2,1.9330023E-2,-4.5630313E-3,-1.6185934E-2,1.7583438E-3,5.7572283E-2,-0E0,3.2567512E-3,-1.1126971E-2],"split_indices":[33,28,4,0,16,3,20,28,22,24,21,10,8,0,21,15,0,31,0,0,14,0,17,10,13,0,0,0,0,0,0,0,0,0,0,0,0,0,0],"split_type":[0,0,0,0,0,0,0,0,0,0,0,0,0,0,0,0,0,0,0,0,0,0,0,0,0,0,0,0,0,0,0,0,0,0,0,0,0,0,0],"sum_hessian":[7.222323E2,3.2635266E2,3.958796E2,6.90217E0,3.194505E2,9.213103E1,3.037486E2,3.1005184E1,2.884453E2,3.6820522E1,5.5310505E1,2.5213066E1,2.7853552E2,8.792348E0,2.2212837E1,2.8075986E2,7.6854506E0,3.0201962E1,6.6185617E0,1.2951314E1,4.235919E1,2.7659621E0,2.2447105E1,2.5886597E2,1.9669542E1,7.029933E0,1.5182903E1,2.789324E2,1.8274621E0,1.1845211E0,2.9017439E1,3.8874905E1,3.4842892E0,2.0804632E1,1.6424729E0,2.1318619E2,4.56798E1,8.061227E0,1.1608315E1],"tree_param":{"num_deleted":"0","num_feature":"35","num_nodes":"39","size_leaf_vector":"1"}},{"base_weights":[-4.9871318E-2,7.326527E-2,-4.7666162E-1,-1.4971842E-1,2.8248453E-1,-4.9522722E-1,1.2759753E-3,-3.4481004E-1,4.612E-2,-1.1603119E-1,3.5862032E-1,-5.104005E-1,8.3183585E-4,4.5014075E-3,-3.829238E-1,-2.4876855E-1,2.2600442E-1,3.4313917E-3,-1.5814804E-1,-9.296387E-2,4.2600596E-1,-5.250084E-1,-0E0,-3.965527E-2,2.7159313E-4,1.8290237E-3,-2.712352E-2,-5.643269E-3,2.9565832E-2,1.1155065E-3,-1.7679136E-2,-1.4339744E-2,4.4519915E-3,-4.2026946E-3,4.8271704E-2,-0E0,-5.3242233E-2],"categories":[],"categories_nodes":[],"categories_segments":[],"categories_sizes":[],"default_left":[0,0,0,0,0,0,0,0,0,0,0,0,0,0,0,0,0,0,0,0,0,0,0,0,0,0,0,0,0,0,0,0,0,0,0,0,0],"id":17,"left_children":[1,3,5,7,9,11,-1,13,15,17,19,21,-1,-1,23,25,27,-1,29,31,33,35,-1,-1,-1,-1,-1,-1,-1,-1,-1,-1,-1,-1,-1,-1,-1],"loss_changes":[4.6586723E1,3.773262E1,2.904705E0,1.7527061E1,1.6722115E1,2.4112892E0,0E0,5.3213634E0,2.0977848E1,1.5439396E0,1.5474182E1,1.527401E0,0E0,0E0,1.6195316E0,1.6810532E0,6.522339E0,0E0,7.771909E-1,1.6238935E0,1.1482124E1,9.5516205E-1,0E0,0E0,0E0,0E0,0E0,0E0,0E0,0E0,0E0,0E0,0E0,0E0,0E0,0E0,0E0],"parents":[2147483647,0,0,1,1,2,2,3,3,4,4,5,5,7,7,8,8,9,9,10,10,11,11,14,14,15,15,16,16,18,18,19,19,20,20,21,21],"right_children":[2,4,6,8,10,12,-1,14,16,18,20,22,-1,-1,24,26,28,-1,30,32,34,36,-1,-1,-1,-1,-1,-1,-1,-1,-1,-1,-1,-1,-1,-1,-1],"split_conditions":[1.5E1,7.4102483E0,4.976E3,1.961648E1,6.5053375E1,5.2608716E2,1.2759753E-3,1.31E2,1.15163315E2,3.6E1,3.0889528E0,3.58451E2,8.3183585E-4,4.5014075E-3,8.720878E1,2.1E1,1.6611769E1,3.4313917E-3,7.42E0,1.504327E2,2.227E1,2.15E0,-0E0,-3.965527E-2,2.7159313E-4,1.8290237E-3,-2.712352E-2,-5.643269E-3,2.9565832E-2,1.1155065E-3,-1.7679136E-2,-1.4339744E-2,4.4519915E-3,-4.2026946E-3,4.8271704E-2,-0E0,-5.3242233E-2],"split_indices":[8,17,9,24,7,22,0,10,6,0,8,25,0,0,29,24,4,0,17,10,1,18,0,0,0,0,0,0,0,0,0,0,0,0,0,0,0],"split_type":[0,0,0,0,0,0,0,0,0,0,0,0,0,0,0,0,0,0,0,0,0,0,0,0,0,0,0,0,0,0,0,0,0,0,0,0,0],"sum_hessian":[7.1233514E2,6.1530035E2,9.703474E1,3.0930557E2,3.059948E2,9.431401E1,2.7207274E0,1.1939925E2,1.8990633E2,3.8570644E1,2.6742416E2,9.2161514E1,2.152496E0,6.6849027E0,1.1271434E2,5.533756E1,1.3456877E2,7.2989326E0,3.1271711E1,2.786813E1,2.3955603E2,8.715824E1,5.003271E0,1.0863824E2,4.076107E0,2.2826726E0,5.305489E1,2.7536514E1,1.0703226E2,1.7655814E0,2.950613E1,2.2563385E1,5.3047457E0,2.6782398E1,2.1277364E2,1.8065324E0,8.535171E1],"tree_param":{"num_deleted":"0","num_feature":"35","num_nodes":"37","size_leaf_vector":"1"}},{"base_weights":[-8.355276E-2,-3.2777396E-1,3.8955978E-1,-5.1062465E-1,-1.2445786E-1,-6.533036E-2,4.4742426E-1,5.7541253E-3,-5.4444265E-1,-2.8886303E-1,7.772691E-2,-1.2270036E-1,5.0628255E-3,4.8435137E-1,-1.7588671E-2,-5.6691325E-1,-0E0,-3.4819737E-1,2.0201935E-2,2.0558932E-1,-1.8290858E-1,-1.5631145E-2,2.3777965E-3,-8.837822E-4,5.1204824E-1,4.8867073E-3,-7.950403E-3,-0E0,-5.74237E-2,5.7059065E-3,-5.2674334E-3,3.6763349E-3,-3.729107E-2,-8.220325E-3,1.2362153E-2,-1.0786368E-2,2.839963E-2,-2.18701E-2,3.084763E-3,-1.957433E-3,5.3587463E-2],"categories":[],"categories_nodes":[],"categories_segments":[],"categories_sizes":[],"default_left":[0,0,0,0,0,0,0,0,0,0,0,0,0,0,0,0,0,0,0,0,0,0,0,0,0,0,0,0,0,0,0,0,0,0,0,0,0,0,0,0,0],"id":18,"left_children":[1,3,5,7,9,11,13,-1,15,17,19,21,-1,23,25,27,29,31,33,35,37,-1,-1,-1,39,-1,-1,-1,-1,-1,-1,-1,-1,-1,-1,-1,-1,-1,-1,-1,-1],"loss_changes":[1.0717539E2,1.5127594E1,1.1798065E1,8.969276E0,1.6301731E1,1.5030336E0,6.4862022E0,0E0,3.5376434E0,5.6829987E0,1.2543312E1,1.077336E0,0E0,4.839119E0,8.9909285E-1,6.903839E-1,6.3345057E-1,3.8096085E0,2.4625432E0,8.794005E0,1.9095926E0,0E0,0E0,0E0,5.0205917E0,0E0,0E0,0E0,0E0,0E0,0E0,0E0,0E0,0E0,0E0,0E0,0E0,0E0,0E0,0E0,0E0],"parents":[2147483647,0,0,1,1,2,2,3,3,4,4,5,5,6,6,8,8,9,9,10,10,11,11,13,13,14,14,15,15,16,16,17,17,18,18,19,19,20,20,24,24],"right_children":[2,4,6,8,10,12,14,-1,16,18,20,22,-1,24,26,28,30,32,34,36,38,-1,-1,-1,40,-1,-1,-1,-1,-1,-1,-1,-1,-1,-1,-1,-1,-1,-1,-1,-1],"split_conditions":[2.0106318E1,6.0581183E0,2.174162E1,2.49E1,8.1050694E-1,3.4258835E1,3.114E1,5.7541253E-3,1E0,1.7432377E1,2.1009442E2,7.4836183E0,5.0628255E-3,6.15E2,6.3E1,5E0,7.81E1,7E0,5.57118E1,6.3014687E1,2.4847311E1,-1.5631145E-2,2.3777965E-3,-8.837822E-4,2.42E-1,4.8867073E-3,-7.950403E-3,-0E0,-5.74237E-2,5.7059065E-3,-5.2674334E-3,3.6763349E-3,-3.729107E-2,-8.220325E-3,1.2362153E-2,-1.0786368E-2,2.839963E-2,-2.18701E-2,3.084763E-3,-1.957433E-3,5.3587463E-2],"split_indices":[33,33,1,28,21,2,1,0,34,30,19,17,0,9,0,24,27,33,24,7,31,0,0,0,15,0,0,0,0,0,0,0,0,0,0,0,0,0,0,0,0],"split_type":[0,0,0,0,0,0,0,0,0,0,0,0,0,0,0,0,0,0,0,0,0,0,0,0,0,0,0,0,0,0,0,0,0,0,0,0,0,0,0,0,0],"sum_hessian":[7.175962E2,4.9494067E2,2.2265555E2,1.7841656E2,3.165241E2,2.1720451E1,2.009351E2,4.421016E0,1.7399554E2,1.5365541E2,1.6286868E2,1.6411015E1,5.3094373E0,1.842921E2,1.6643007E1,1.6371277E2,1.0282789E1,1.2099985E2,3.2655567E1,1.2600834E2,3.6860348E1,1.3440805E1,2.9702082E0,1.1500054E1,1.7279204E2,1.0401766E1,6.2412415E0,4.5901213E0,1.5912263E2,3.923653E0,6.3591366E0,1.916897E0,1.1908295E2,2.185772E1,1.0797846E1,1.5143829E1,1.1086451E2,3.359925E1,3.2610967E0,6.377211E0,1.6641483E2],"tree_param":{"num_deleted":"0","num_feature":"35","num_nodes":"41","size_leaf_vector":"1"}},{"base_weights":[-6.02381E-2,-2.810987E-1,3.780816E-1,-4.6762672E-1,-8.423138E-2,-4.4632394E-2,4.2316458E-1,-5.3515524E-1,2.7175767E-2,5.8292087E-2,-2.6663706E-1,-9.5432345E-3,4.3530646E-3,4.645677E-1,-4.1193306E-3,-5.492856E-1,-0E0,1.5523055E-1,-1.23677775E-2,-2.0663065E-1,1.9133036E-1,5.8566337E-3,-3.05737E-1,4.8779914E-1,-4.364267E-3,-3.1102349E-3,-5.8318473E-2,1.8949628E-2,-2.4732852E-3,2.0505814E-3,-2.3167802E-2,-1.4986949E-2,2.9533157E-2,-3.361565E-2,2.342411E-3,5.1320758E-2,-2.5581259E-3],"categories":[],"categories_nodes":[],"categories_segments":[],"categories_sizes":[],"default_left":[0,0,0,0,0,0,0,0,0,0,0,0,0,0,0,0,0,0,0,0,0,0,0,0,0,0,0,0,0,0,0,0,0,0,0,0,0],"id":19,"left_children":[1,3,5,7,9,11,13,15,17,19,21,-1,-1,23,-1,25,-1,27,-1,29,31,-1,33,35,-1,-1,-1,-1,-1,-1,-1,-1,-1,-1,-1,-1,-1],"loss_changes":[8.841198E1,1.731506E1,8.18782E0,1.132933E1,1.2511925E1,9.9698246E-1,7.9589844E0,1.7024307E0,4.4057765E0,1.4902792E1,4.6111393E0,0E0,0E0,5.8622894E0,0E0,1.8942108E0,0E0,1.3527651E0,0E0,1.537147E0,1.3852145E1,0E0,3.0975513E0,5.4073563E0,0E0,0E0,0E0,0E0,0E0,0E0,0E0,0E0,0E0,0E0,0E0,0E0,0E0],"parents":[2147483647,0,0,1,1,2,2,3,3,4,4,5,5,6,6,7,7,8,8,9,9,10,10,13,13,15,15,17,17,19,19,20,20,22,22,23,23],"right_children":[2,4,6,8,10,12,14,16,18,20,22,-1,-1,24,-1,26,-1,28,-1,30,32,-1,34,36,-1,-1,-1,-1,-1,-1,-1,-1,-1,-1,-1,-1,-1],"split_conditions":[2.0106318E1,6.0581183E0,2.1645687E1,1.922428E1,2.081651E2,3.4258835E1,3.7E0,5.8671674E2,1.778033E1,1.4781855E0,6.918818E0,-9.5432345E-3,4.3530646E-3,3.718E1,-4.1193306E-3,3.45E0,-0E0,2.3164162E1,-1.23677775E-2,2.5E1,1.6062204E1,5.8566337E-3,6.1188464E2,8.3E1,-4.364267E-3,-3.1102349E-3,-5.8318473E-2,1.8949628E-2,-2.4732852E-3,2.0505814E-3,-2.3167802E-2,-1.4986949E-2,2.9533157E-2,-3.361565E-2,2.342411E-3,5.1320758E-2,-2.5581259E-3],"split_indices":[33,33,1,30,19,2,16,23,4,20,33,0,0,1,0,11,0,29,0,0,4,0,23,0,0,0,0,0,0,0,0,0,0,0,0,0,0],"split_type":[0,0,0,0,0,0,0,0,0,0,0,0,0,0,0,0,0,0,0,0,0,0,0,0,0,0,0,0,0,0,0,0,0,0,0,0,0],"sum_hessian":[7.044945E2,4.9381924E2,2.1067528E2,1.8033849E2,3.1348077E2,1.8262058E1,1.9241322E2,1.5328455E2,2.7053932E1,2.1109843E2,1.0238235E2,1.3551153E1,4.7109046E0,1.7859743E2,1.3815795E1,1.4606322E2,7.22134E0,1.664877E1,1.0405164E1,4.9564987E1,1.6153343E2,2.9000676E0,9.948228E1,1.7651262E2,2.084803E0,2.2553816E1,1.235094E2,1.4203862E1,2.4449065E0,2.758411E0,4.680658E1,2.518602E1,1.3634741E2,9.190195E1,7.5803366E0,1.7007666E2,6.435956E0],"tree_param":{"num_deleted":"0","num_feature":"35","num_nodes":"37","size_leaf_vector":"1"}},{"base_weights":[-5.242132E-2,5.8958557E-2,-4.387207E-1,-1.7466444E-1,2.8168175E-1,-4.5247877E-1,6.458518E-4,-2.9460067E-1,7.589632E-2,-1.126207E-1,3.7022704E-1,-0E0,-4.7568586E-1,-3.1068045E-1,3.0167978E-3,-1.4171126E-1,1.9909497E-1,-1.7666282E-1,6.616488E-3,-8.060526E-2,4.4133157E-1,-4.8541003E-1,2.147941E-5,-3.2216158E-2,1.3325912E-3,1.4106379E-3,-1.6617252E-2,-6.431403E-3,2.5873054E-2,1.7185397E-3,-1.9878944E-2,-1.1795271E-2,3.1646707E-3,-4.378147E-3,4.9522404E-2,-0E0,-4.9305666E-2],"categories":[],"categories_nodes":[],"categories_segments":[],"categories_sizes":[],"default_left":[0,0,0,0,0,0,0,0,0,0,0,0,0,0,0,0,0,0,0,0,0,0,0,0,0,0,0,0,0,0,0,0,0,0,0,0,0],"id":20,"left_children":[1,3,5,7,9,11,-1,13,15,17,19,-1,21,23,-1,25,27,29,-1,31,33,35,-1,-1,-1,-1,-1,-1,-1,-1,-1,-1,-1,-1,-1,-1,-1],"loss_changes":[3.7322372E1,4.1759148E1,1.9176292E0,1.4597496E1,1.8457678E1,1.8724442E0,0E0,2.7658997E0,8.444881E0,2.9773817E0,1.525206E1,0E0,1.3310432E0,1.8327427E0,0E0,8.840196E-1,4.6401343E0,1.1260943E0,0E0,1.0079751E0,1.1057762E1,9.115753E-1,0E0,0E0,0E0,0E0,0E0,0E0,0E0,0E0,0E0,0E0,0E0,0E0,0E0,0E0,0E0],"parents":[2147483647,0,0,1,1,2,2,3,3,4,4,5,5,7,7,8,8,9,9,10,10,12,12,13,13,15,15,16,16,17,17,19,19,20,20,21,21],"right_children":[2,4,6,8,10,12,-1,14,16,18,20,-1,22,24,-1,26,28,30,-1,32,34,36,-1,-1,-1,-1,-1,-1,-1,-1,-1,-1,-1,-1,-1,-1,-1],"split_conditions":[1.5E1,7.4102483E0,6.2E2,1.104813E0,1.6062204E1,3.3E0,6.458518E-4,1.4036552E1,3.9507086E0,1.9811703E1,6.5053375E1,-0E0,4.01E1,6.24E-1,3.0167978E-3,1.2750331E0,8.235234E1,7.42E0,6.616488E-3,3.33609E1,2.4553875E1,1.323881E1,2.147941E-5,-3.2216158E-2,1.3325912E-3,1.4106379E-3,-1.6617252E-2,-6.431403E-3,2.5873054E-2,1.7185397E-3,-1.9878944E-2,-1.1795271E-2,3.1646707E-3,-4.378147E-3,4.9522404E-2,-0E0,-4.9305666E-2],"split_indices":[8,17,22,21,4,11,0,8,11,30,7,0,31,15,0,21,3,17,0,2,26,4,0,0,0,0,0,0,0,0,0,0,0,0,0,0,0],"split_type":[0,0,0,0,0,0,0,0,0,0,0,0,0,0,0,0,0,0,0,0,0,0,0,0,0,0,0,0,0,0,0,0,0,0,0,0,0],"sum_hessian":[6.984938E2,6.0593604E2,9.255775E1,3.0407153E2,3.0186453E2,9.037145E1,2.1862977E0,1.9645071E2,1.0762082E2,4.829918E1,2.5356535E2,9.847027E0,8.052443E1,1.9425014E2,2.2005675E0,3.0537813E1,7.7083E1,4.0553337E1,7.745841E0,3.0807497E1,2.2275784E2,7.901303E1,1.5113928E0,1.9113307E2,3.1170692E0,4.3403983E0,2.6197414E1,9.686109E0,6.73969E1,1.8124015E0,3.8740936E1,2.5990255E1,4.8172417E0,2.229304E1,2.0046481E2,1.7597065E0,7.725333E1],"tree_param":{"num_deleted":"0","num_feature":"35","num_nodes":"37","size_leaf_vector":"1"}},{"base_weights":[-3.9003942E-2,-2.899389E-1,3.5851035E-1,1.5532552E-2,-3.7949675E-1,-4.2322356E-2,4.0467507E-1,-1.5438655E-1,1.6983533E-1,-5.056925E-1,-1.2590873E-1,-1.101388E-2,5.3594757E-2,4.3865225E-1,-5.6676227E-3,-2.4101087E-1,8.259763E-2,2.3550794E-1,-6.9220783E-3,3.1141436E-3,-5.3413236E-1,9.843906E-2,-2.4248429E-1,9.011519E-3,-2.9121302E-3,4.6586144E-1,-5.24228E-3,-2.508269E-2,1.0495718E-5,1.1392623E-2,-2.123901E-3,-4.692997E-3,3.026377E-2,-0E0,-5.489114E-2,1.7224919E-2,-8.144969E-3,-3.1945597E-2,-1.8163407E-4,4.9589124E-2,-2.8532704E-3],"categories":[],"categories_nodes":[],"categories_segments":[],"categories_sizes":[],"default_left":[0,0,0,0,0,0,0,0,0,0,0,0,0,0,0,0,0,0,0,0,0,0,0,0,0,0,0,0,0,0,0,0,0,0,0,0,0,0,0,0,0],"id":21,"left_children":[1,3,5,7,9,11,13,15,17,19,21,-1,23,25,-1,27,29,31,-1,-1,33,35,37,-1,-1,39,-1,-1,-1,-1,-1,-1,-1,-1,-1,-1,-1,-1,-1,-1,-1],"loss_changes":[8.920636E1,1.577002E1,8.536446E0,8.309236E0,6.6107407E0,1.4557455E0,7.9598656E0,5.274578E0,4.3723407E0,5.955364E0,9.778074E0,0E0,6.637684E-1,7.078003E0,0E0,5.8496475E-1,6.9945467E-1,4.609293E0,0E0,0E0,2.2534714E0,3.657259E0,3.5878153E0,0E0,0E0,6.506378E0,0E0,0E0,0E0,0E0,0E0,0E0,0E0,0E0,0E0,0E0,0E0,0E0,0E0,0E0,0E0],"parents":[2147483647,0,0,1,1,2,2,3,3,4,4,5,5,6,6,7,7,8,8,9,9,10,10,12,12,13,13,15,15,16,16,17,17,20,20,21,21,22,22,25,25],"right_children":[2,4,6,8,10,12,14,16,18,20,22,-1,24,26,-1,28,30,32,-1,-1,34,36,38,-1,-1,40,-1,-1,-1,-1,-1,-1,-1,-1,-1,-1,-1,-1,-1,-1,-1],"split_conditions":[1.7365156E1,8.85E0,1.0959793E2,1.675207E1,3.6601887E1,3.1210419E1,3.9E0,3.122E1,3.25E1,2.74E1,3.8E0,-1.101388E-2,4.215E0,3.93E3,-5.6676227E-3,2.7E1,2.0458967E1,3.0219402E1,-6.9220783E-3,3.1141436E-3,6.7397644E1,1.3880967E1,8.153937E0,9.011519E-3,-2.9121302E-3,8.3E1,-5.24228E-3,-2.508269E-2,1.0495718E-5,1.1392623E-2,-2.123901E-3,-4.692997E-3,3.026377E-2,-0E0,-5.489114E-2,1.7224919E-2,-8.144969E-3,-3.1945597E-2,-1.8163407E-4,4.9589124E-2,-2.8532704E-3],"split_indices":[33,14,6,31,5,2,16,1,28,28,11,0,13,9,0,30,4,28,0,0,27,18,33,0,0,0,0,0,0,0,0,0,0,0,0,0,0,0,0,0,0],"split_type":[0,0,0,0,0,0,0,0,0,0,0,0,0,0,0,0,0,0,0,0,0,0,0,0,0,0,0,0,0,0,0,0,0,0,0,0,0,0,0,0,0],"sum_hessian":[6.9077826E2,4.4159473E2,2.4918353E2,1.1632252E2,3.2527222E2,2.4357471E1,2.2482607E2,5.224974E1,6.407277E1,1.4817561E2,1.770966E2,1.1690513E1,1.2666959E1,2.1600557E2,8.820496E0,4.0109245E1,1.2140494E1,5.471032E1,9.362452E0,5.2079725E0,1.4296764E2,6.294314E1,1.1415346E2,1.0968518E1,1.6984404E0,2.1145984E2,4.5457287E0,3.865539E1,1.4538546E0,9.260287E0,2.880207E0,1.3424216E1,4.1286102E1,5.4282837E0,1.3753935E2,5.1583668E1,1.1359471E1,5.8538918E1,5.561454E1,2.009725E2,1.0487332E1],"tree_param":{"num_deleted":"0","num_feature":"35","num_nodes":"41","size_leaf_vector":"1"}},{"base_weights":[-6.482444E-2,-3.2725024E-1,2.2661936E-1,-2.5580917E-3,-4.1997883E-1,-7.452657E-2,3.3551213E-1,-1.8297086E-2,1.2225932E-1,-5.0978035E-1,-8.235016E-2,-1.7512618E-1,1.0456641E-1,-8.060809E-2,4.0122074E-1,2.0162389E-1,-1.035525E-2,-5.353334E-1,-1.1260904E-3,9.941557E-2,-1.8894438E-1,-2.3389281E-1,2.3113836E-2,-3.0293118E-3,1.397137E-1,-1.3186434E-1,3.7880873E-3,4.4104254E-1,-4.433655E-3,-5.7053654E-3,2.5234515E-2,-1.8433593E-3,-5.5639893E-2,1.6087217E-2,-5.648808E-3,1.1045759E-3,-2.373833E-2,8.3445193E-4,-2.4947964E-2,-3.8417608E-3,7.1140337E-3,-2.3393768E-3,1.7089164E-2,1.4005582E-3,-1.5546091E-2,4.723854E-2,-3.6942274E-3],"categories":[],"categories_nodes":[],"categories_segments":[],"categories_sizes":[],"default_left":[0,0,0,0,0,0,0,0,0,0,0,0,0,0,0,0,0,0,0,0,0,0,0,0,0,0,0,0,0,0,0,0,0,0,0,0,0,0,0,0,0,0,0,0,0,0,0],"id":22,"left_children":[1,3,5,7,9,11,13,-1,15,17,19,21,23,25,27,29,-1,31,-1,33,35,37,39,-1,41,43,-1,45,-1,-1,-1,-1,-1,-1,-1,-1,-1,-1,-1,-1,-1,-1,-1,-1,-1,-1,-1],"loss_changes":[6.71634E1,1.3111706E1,1.6756899E1,6.883858E0,5.804302E0,5.3740788E0,1.2688885E1,0E0,5.3588734E0,2.0914001E0,5.746464E0,2.6662674E0,1.1410674E0,1.3632991E0,7.80468E0,3.8420377E0,0E0,9.9046326E-1,0E0,2.2984157E0,2.0469728E0,9.766612E-1,6.745318E-1,0E0,1.1856022E0,7.608223E-1,0E0,6.574459E0,0E0,0E0,0E0,0E0,0E0,0E0,0E0,0E0,0E0,0E0,0E0,0E0,0E0,0E0,0E0,0E0,0E0,0E0,0E0],"parents":[2147483647,0,0,1,1,2,2,3,3,4,4,5,5,6,6,8,8,9,9,10,10,11,11,12,12,13,13,14,14,15,15,17,17,19,19,20,20,21,21,22,22,24,24,25,25,27,27],"right_children":[2,4,6,8,10,12,14,-1,16,18,20,22,24,26,28,30,-1,32,-1,34,36,38,40,-1,42,44,-1,46,-1,-1,-1,-1,-1,-1,-1,-1,-1,-1,-1,-1,-1,-1,-1,-1,-1,-1,-1],"split_conditions":[1.2233281E1,8.95E0,8.5672386E1,1.54E0,7.430185E0,4.095091E1,1.017E0,-1.8297086E-2,9.15E1,1.0360636E1,7.46E0,8.92E1,1.8078356E1,7.902001E1,1.185E2,7.41E1,-1.035525E-2,7.44E1,-1.1260904E-3,2.911922E0,1.6987051E1,1.28E1,1.96E3,-3.0293118E-3,3.6154446E1,1.8386519E0,3.7880873E-3,3.54814E2,-4.433655E-3,-5.7053654E-3,2.5234515E-2,-1.8433593E-3,-5.5639893E-2,1.6087217E-2,-5.648808E-3,1.1045759E-3,-2.373833E-2,8.3445193E-4,-2.4947964E-2,-3.8417608E-3,7.1140337E-3,-2.3393768E-3,1.7089164E-2,1.4005582E-3,-1.5546091E-2,4.723854E-2,-3.6942274E-3],"split_indices":[33,14,3,20,17,24,20,0,27,33,17,27,2,7,3,27,0,27,0,20,2,31,9,0,5,16,0,19,0,0,0,0,0,0,0,0,0,0,0,0,0,0,0,0,0,0,0],"split_type":[0,0,0,0,0,0,0,0,0,0,0,0,0,0,0,0,0,0,0,0,0,0,0,0,0,0,0,0,0,0,0,0,0,0,0,0,0,0,0,0,0,0,0,0,0,0,0],"sum_hessian":[6.798744E2,3.5308768E2,3.267867E2,1.0366036E2,2.494273E2,9.2726204E1,2.340605E2,2.6613604E1,7.704676E1,1.54408E2,9.50193E1,6.436814E1,2.8358065E1,2.6751911E1,2.0730858E2,6.821256E1,8.834202E0,1.3794655E2,1.6461464E1,3.4146122E1,6.0873177E1,3.9668472E1,2.469967E1,2.835934E0,2.5522131E1,1.6685415E1,1.0066496E1,1.9329082E2,1.4017759E1,5.9036756E0,6.2308884E1,1.4602842E1,1.233437E2,2.6806437E1,7.3396864E0,2.2895649E1,3.7977528E1,1.3285613E0,3.833991E1,1.0470512E1,1.4229158E1,2.955153E0,2.2566977E1,2.0819387E0,1.4603477E1,1.8445891E2,8.831919E0],"tree_param":{"num_deleted":"0","num_feature":"35","num_nodes":"47","size_leaf_vector":"1"}},{"base_weights":[-6.744309E-2,-2.7334118E-1,3.3952695E-1,-4.357531E-1,-8.214285E-2,-7.612513E-3,3.828402E-1,-0E0,-4.8546326E-1,-1.8972722E-1,8.108407E-2,-4.7926814E-3,4.1822484E-1,-8.694912E-2,9.033603E-2,3.2770713E-3,-5.14395E-1,-2.3285103E-1,5.041123E-2,-1.1196466E-2,1.5596648E-1,-2.3982748E-3,4.516783E-1,-1.1007926E-2,1.5696565E-3,1.1845792E-2,-1.8019546E-3,-5.2540537E-2,1.7694173E-4,-3.0423824E-2,-0E0,-6.3690725E-3,1.1978214E-2,-7.853403E-3,2.3423046E-2,4.7322027E-2,-3.4572908E-3],"categories":[],"categories_nodes":[],"categories_segments":[],"categories_sizes":[],"default_left":[0,0,0,0,0,0,0,0,0,0,0,0,0,0,0,0,0,0,0,0,0,0,0,0,0,0,0,0,0,0,0,0,0,0,0,0,0],"id":23,"left_children":[1,3,5,7,9,-1,11,13,15,17,19,-1,21,23,25,-1,27,29,31,-1,33,-1,35,-1,-1,-1,-1,-1,-1,-1,-1,-1,-1,-1,-1,-1,-1],"loss_changes":[7.492844E1,1.3844822E1,8.737942E0,5.993126E0,8.520899E0,0E0,6.890827E0,1.8067695E0,6.0078087E0,4.1477995E0,4.9976263E0,0E0,5.7450905E0,5.514619E-1,6.505144E-1,0E0,2.0397644E0,4.0280933E0,1.7665522E0,0E0,5.7645726E0,0E0,4.936779E0,0E0,0E0,0E0,0E0,0E0,0E0,0E0,0E0,0E0,0E0,0E0,0E0,0E0,0E0],"parents":[2147483647,0,0,1,1,2,2,3,3,4,4,6,6,7,7,8,8,9,9,10,10,12,12,13,13,14,14,16,16,17,17,18,18,20,20,22,22],"right_children":[2,4,6,8,10,-1,12,14,16,18,20,-1,22,24,26,-1,28,30,32,-1,34,-1,36,-1,-1,-1,-1,-1,-1,-1,-1,-1,-1,-1,-1,-1,-1],"split_conditions":[2.0106318E1,3.6555088E1,1.1006859E2,2.1E0,1.6942657E1,-7.612513E-3,2.024E1,7.604426E1,2.74E1,1.9541962E1,1.1752937E0,-4.7926814E-3,8.54E-1,1.4012101E1,1.9197306E1,3.2770713E-3,7.619425E0,1.0360636E1,2.16E1,-1.1196466E-2,5.3683567E0,-2.3982748E-3,3.4965763E1,-1.1007926E-2,1.5696565E-3,1.1845792E-2,-1.8019546E-3,-5.2540537E-2,1.7694173E-4,-3.0423824E-2,-0E0,-6.3690725E-3,1.1978214E-2,-7.853403E-3,2.3423046E-2,4.7322027E-2,-3.4572908E-3],"split_indices":[33,5,23,16,31,0,1,7,28,30,20,0,20,33,31,0,17,33,12,0,33,0,1,0,0,0,0,0,0,0,0,0,0,0,0,0,0],"split_type":[0,0,0,0,0,0,0,0,0,0,0,0,0,0,0,0,0,0,0,0,0,0,0,0,0,0,0,0,0,0,0,0,0,0,0,0,0],"sum_hessian":[6.8422894E2,4.7779214E2,2.0643681E2,1.8635652E2,2.914356E2,1.015382E1,1.9628299E2,3.0212091E1,1.5614442E2,1.6956499E2,1.21870636E2,1.0063671E1,1.8621933E2,1.9742025E1,1.0470065E1,5.7270174E0,1.504174E2,1.4985341E2,1.971158E1,1.6488342E1,1.0538229E2,1.2985605E1,1.7323372E2,1.815195E1,1.590074E0,8.237671E0,2.2323945E0,1.4741983E2,2.9975839E0,8.987547E1,5.9977932E1,5.0984583E0,1.4613123E1,2.3086493E1,8.22958E1,1.7042018E2,2.8135452E0],"tree_param":{"num_deleted":"0","num_feature":"35","num_nodes":"37","size_leaf_vector":"1"}},{"base_weights":[-7.453818E-2,-2.719696E-1,2.5442263E-1,-3.8230798E-1,-2.8228939E-2,-6.977742E-2,3.4415993E-1,-4.3860975E-1,4.920172E-4,1.765057E-1,-1.7689027E-1,-1.3520767E-1,6.1544906E-3,3.9866078E-1,-6.819463E-2,-1.7743165E-2,-4.8630303E-1,9.1305226E-2,-9.996514E-3,2.5530118E-1,-8.795447E-3,7.6155164E-3,-2.2910014E-1,1.6941571E-3,-1.7401574E-2,4.2960683E-1,-4.39549E-3,-1.1380754E-1,3.657596E-3,9.004282E-3,-1.208231E-2,-5.2915376E-2,-5.105164E-4,1.4029244E-2,-4.6107867E-3,-4.80977E-3,3.0945236E-2,-2.8997311E-2,-1.9397534E-3,4.5883615E-2,-4.030435E-3,-1.4416437E-2,1.8413442E-3],"categories":[],"categories_nodes":[],"categories_segments":[],"categories_sizes":[],"default_left":[0,0,0,0,0,0,0,0,0,0,0,0,0,0,0,0,0,0,0,0,0,0,0,0,0,0,0,0,0,0,0,0,0,0,0,0,0,0,0,0,0,0,0],"id":24,"left_children":[1,3,5,7,9,11,13,15,17,19,21,23,-1,25,27,29,31,33,-1,35,-1,-1,37,-1,-1,39,-1,41,-1,-1,-1,-1,-1,-1,-1,-1,-1,-1,-1,-1,-1,-1,-1],"loss_changes":[5.710829E1,1.2844467E1,1.2552919E1,8.134541E0,1.1549985E1,2.2318501E0,9.458038E0,4.9124336E0,2.2111046E0,5.824094E0,4.714162E0,1.2748034E0,0E0,5.953491E0,1.0504358E0,2.6493335E0,4.8674393E0,1.6345731E0,0E0,4.2907257E0,0E0,0E0,1.7443485E0,0E0,0E0,5.872925E0,0E0,8.414167E-1,0E0,0E0,0E0,0E0,0E0,0E0,0E0,0E0,0E0,0E0,0E0,0E0,0E0,0E0,0E0],"parents":[2147483647,0,0,1,1,2,2,3,3,4,4,5,5,6,6,7,7,8,8,9,9,10,10,11,11,13,13,14,14,15,15,16,16,17,17,19,19,22,22,25,25,27,27],"right_children":[2,4,6,8,10,12,14,16,18,20,22,24,-1,26,28,30,32,34,-1,36,-1,-1,38,-1,-1,40,-1,42,-1,-1,-1,-1,-1,-1,-1,-1,-1,-1,-1,-1,-1,-1,-1],"split_conditions":[1.7365156E1,7.430185E0,1.501677E1,1E0,7.46E0,2.4923009E2,2.94E1,2.1910603E0,2.55E2,1.5E1,2.839899E1,1.3553303E1,6.1544906E-3,6.165E0,4.210067E1,2.6E1,1.2233281E1,2.4E2,-9.996514E-3,4.087364E0,-8.795447E-3,7.6155164E-3,9.224668E1,1.6941571E-3,-1.7401574E-2,4E0,-4.39549E-3,2.1E2,3.657596E-3,9.004282E-3,-1.208231E-2,-5.2915376E-2,-5.105164E-4,1.4029244E-2,-4.6107867E-3,-4.80977E-3,3.0945236E-2,-2.8997311E-2,-1.9397534E-3,4.5883615E-2,-4.030435E-3,-1.4416437E-2,1.8413442E-3],"split_indices":[33,17,24,34,17,23,12,16,23,8,28,29,0,13,33,29,33,19,0,8,0,0,3,0,0,16,0,24,0,0,0,0,0,0,0,0,0,0,0,0,0,0,0],"split_type":[0,0,0,0,0,0,0,0,0,0,0,0,0,0,0,0,0,0,0,0,0,0,0,0,0,0,0,0,0,0,0,0,0,0,0,0,0,0,0,0,0,0,0],"sum_hessian":[6.724925E2,4.3299045E2,2.3950204E2,2.561028E2,1.7688762E2,5.432766E1,1.851744E2,2.1283261E2,4.3270203E1,6.3701664E1,1.1318596E2,3.9368744E1,1.4958915E1,1.6863225E2,1.6542145E1,3.776322E1,1.750694E2,3.273897E1,1.0531231E1,5.4660282E1,9.041384E0,8.238664E0,1.04947296E2,1.4215094E1,2.515365E1,1.6247125E2,6.1609936E0,1.2165131E1,4.3770146E0,1.9900522E1,1.78627E1,1.4969495E2,2.5374449E1,2.7955042E1,4.783928E0,7.1745625E0,4.7485718E1,4.7974285E1,5.6973007E1,1.5717932E2,5.291938E0,8.698276E0,3.4668548E0],"tree_param":{"num_deleted":"0","num_feature":"35","num_nodes":"43","size_leaf_vector":"1"}},{"base_weights":[-5.041909E-2,-3.8515174E-1,1.344351E-1,6.716825E-3,-4.197343E-1,-1.3413353E-1,2.4123831E-1,-4.5128083E-1,5.5949967E-3,4.858773E-2,-2.5394413E-1,3.4143916E-1,-1.7095828E-1,4.2057256E-4,-4.6984226E-1,7.8777E-3,-6.341947E-3,-8.4404886E-2,1.3718906E-1,-2.8064197E-1,1.3965047E-4,-1.2958205E-1,4.1600657E-1,-2.4710922E-1,7.230077E-3,-4.8051126E-2,-0E0,2.5162583E-3,-1.2474457E-2,1.7572297E-2,-3.1223951E-3,-2.9191134E-2,2.1395412E-4,-1.6973088E-2,2.023088E-3,-6.2252646E-3,4.7982574E-2,-2.617983E-2,6.7834684E-4],"categories":[],"categories_nodes":[],"categories_segments":[],"categories_sizes":[],"default_left":[0,0,0,0,0,0,0,0,0,0,0,0,0,0,0,0,0,0,0,0,0,0,0,0,0,0,0,0,0,0,0,0,0,0,0,0,0,0,0],"id":25,"left_children":[1,3,5,-1,7,9,11,13,15,17,19,21,23,-1,25,-1,-1,27,29,31,-1,33,35,37,-1,-1,-1,-1,-1,-1,-1,-1,-1,-1,-1,-1,-1,-1,-1],"loss_changes":[5.3078167E1,7.8922234E0,1.9644194E1,0E0,4.6722755E0,6.3276935E0,2.4387463E1,3.0232697E0,1.1060692E0,3.2028983E0,1.3698511E0,1.9490898E1,4.771691E0,0E0,9.2341995E-1,0E0,0E0,9.6594566E-1,1.6281374E0,8.1008625E-1,0E0,1.2637973E0,1.45491295E1,9.595909E-1,0E0,0E0,0E0,0E0,0E0,0E0,0E0,0E0,0E0,0E0,0E0,0E0,0E0,0E0,0E0],"parents":[2147483647,0,0,1,1,2,2,4,4,5,5,6,6,7,7,8,8,9,9,10,10,11,11,12,12,14,14,17,17,18,18,19,19,21,21,22,22,23,23],"right_children":[2,4,6,-1,8,10,12,14,16,18,20,22,24,-1,26,-1,-1,28,30,32,-1,34,36,38,-1,-1,-1,-1,-1,-1,-1,-1,-1,-1,-1,-1,-1,-1,-1],"split_conditions":[7.1686025E0,2.49E1,8.507168E1,6.716825E-3,1E0,8.986423E0,1.145E2,1.7E0,8.9E0,7.4102483E0,9.148937E1,1.0028783E0,1.3434642E2,4.2057256E-4,5.8671674E2,7.8777E-3,-6.341947E-3,1.3886847E2,3.69991E1,7.5920777E0,1.3965047E-4,7.974923E1,1.2100563E1,8.720878E1,7.230077E-3,-4.8051126E-2,-0E0,2.5162583E-3,-1.2474457E-2,1.7572297E-2,-3.1223951E-3,-2.9191134E-2,2.1395412E-4,-1.6973088E-2,2.023088E-3,-6.2252646E-3,4.7982574E-2,-2.617983E-2,6.7834684E-4],"split_indices":[33,28,3,0,34,8,3,16,14,17,24,20,6,0,23,0,0,10,5,17,0,7,24,29,0,0,0,0,0,0,0,0,0,0,0,0,0,0,0],"split_type":[0,0,0,0,0,0,0,0,0,0,0,0,0,0,0,0,0,0,0,0,0,0,0,0,0,0,0,0,0,0,0,0,0,0,0,0,0,0,0],"sum_hessian":[6.700739E2,2.0176842E2,4.6830548E2,5.58449E0,1.9618393E2,1.23300415E2,3.4500507E2,1.791463E2,1.7037619E1,6.906704E1,5.423337E1,2.93299E2,5.170606E1,7.9333353E0,1.7121297E2,8.436135E0,8.601484E0,2.4996513E1,4.4070526E1,4.3674355E1,1.0559017E1,2.8169731E1,2.6512927E2,4.1304127E1,1.0401935E1,1.6330232E2,7.910658E0,1.018004E1,1.4816472E1,3.7164387E1,6.906142E0,4.2296474E1,1.3778788E0,1.699498E1,1.1174752E1,2.9658052E1,2.3547124E2,3.982495E1,1.479172E0],"tree_param":{"num_deleted":"0","num_feature":"35","num_nodes":"39","size_leaf_vector":"1"}},{"base_weights":[-7.963082E-2,-2.6857883E-1,2.3581445E-1,-4.2185032E-1,-8.312837E-2,2.9608285E-1,-7.161019E-2,5.495344E-3,-4.5476207E-1,6.858746E-2,-2.6572958E-1,3.5657114E-1,-9.095853E-2,-1.20817125E-2,2.3572804E-2,-4.7743836E-1,-0E0,1.9023901E-1,-1.8516381E-1,5.3341608E-3,-3.0435935E-1,-2.7595663E-2,4.0099323E-1,-1.1407121E-1,1.2595099E-3,-5.0587794E-3,8.063523E-3,5.0765363E-4,-4.9270675E-2,5.9243324E-3,-5.29213E-3,-1.4638628E-2,3.0582508E-2,1.6149286E-3,-2.1189911E-2,-3.299806E-2,2.4352914E-3,-8.600151E-3,4.3689823E-3,-2.8918681E-3,4.3156844E-2,-1.367632E-2,1.0349507E-3],"categories":[],"categories_nodes":[],"categories_segments":[],"categories_sizes":[],"default_left":[0,0,0,0,0,0,0,0,0,0,0,0,0,0,0,0,0,0,0,0,0,0,0,0,0,0,0,0,0,0,0,0,0,0,0,0,0,0,0,0,0,0,0],"id":26,"left_children":[1,3,5,7,9,11,13,-1,15,17,19,21,23,-1,25,27,29,31,33,-1,35,37,39,41,-1,-1,-1,-1,-1,-1,-1,-1,-1,-1,-1,-1,-1,-1,-1,-1,-1,-1,-1],"loss_changes":[5.13587E1,1.0792416E1,8.53389E0,6.9421883E0,1.2080753E1,1.0567167E1,1.0029E0,0E0,2.876583E0,1.201211E1,4.195632E0,6.3145485E0,5.2802604E-1,0E0,9.5391554E-1,2.5268974E0,6.6470194E-1,1.3887853E1,1.2757387E0,0E0,2.6730824E0,9.201297E-1,5.103859E0,5.9112406E-1,0E0,0E0,0E0,0E0,0E0,0E0,0E0,0E0,0E0,0E0,0E0,0E0,0E0,0E0,0E0,0E0,0E0,0E0,0E0],"parents":[2147483647,0,0,1,1,2,2,3,3,4,4,5,5,6,6,8,8,9,9,10,10,11,11,12,12,14,14,15,15,16,16,17,17,18,18,20,20,21,21,22,22,23,23],"right_children":[2,4,6,8,10,12,14,-1,16,18,20,22,24,-1,26,28,30,32,34,-1,36,38,40,42,-1,-1,-1,-1,-1,-1,-1,-1,-1,-1,-1,-1,-1,-1,-1,-1,-1,-1,-1],"split_conditions":[1.7365156E1,6.0581183E0,4.8E0,2.224091E1,2.081651E2,2.9590744E1,3.6555088E1,5.495344E-3,1E0,2.0999628E1,6.918818E0,1.5565655E1,1.0830886E2,-1.20817125E-2,1.3797081E2,5E0,2.44E1,1.6062204E1,3.4E0,5.3341608E-3,1.743E3,2.3049858E1,1.1006859E2,3.539905E1,1.2595099E-3,-5.0587794E-3,8.063523E-3,5.0765363E-4,-4.9270675E-2,5.9243324E-3,-5.29213E-3,-1.4638628E-2,3.0582508E-2,1.6149286E-3,-2.1189911E-2,-3.299806E-2,2.4352914E-3,-8.600151E-3,4.3689823E-3,-2.8918681E-3,4.3156844E-2,-1.367632E-2,1.0349507E-3],"split_indices":[33,33,11,28,19,12,5,0,34,4,33,4,24,0,19,24,26,4,11,0,23,25,23,33,0,0,0,0,0,0,0,0,0,0,0,0,0,0,0,0,0,0,0],"split_type":[0,0,0,0,0,0,0,0,0,0,0,0,0,0,0,0,0,0,0,0,0,0,0,0,0,0,0,0,0,0,0,0,0,0,0,0,0,0,0,0,0,0,0],"sum_hessian":[6.548722E2,4.2082834E2,2.3404384E2,1.5765973E2,2.631686E2,2.0148605E2,3.255778E1,3.893709E0,1.5376602E2,1.7485283E2,8.831577E1,1.8329616E2,1.8189903E1,1.0634641E1,2.1923143E1,1.4285236E2,1.0913666E1,1.3777295E2,3.7079884E1,2.6291063E0,8.568667E1,2.0590923E1,1.6270523E2,1.4462188E1,3.7277145E0,6.8467484E0,1.5076394E1,4.4202113E0,1.3843214E2,4.3617625E0,6.5519032E0,2.6192652E1,1.1158029E2,4.6040425E0,3.247584E1,8.195507E1,3.7315955E0,7.6815615E0,1.2909362E1,8.991353E0,1.5371388E2,1.0639106E1,3.823082E0],"tree_param":{"num_deleted":"0","num_feature":"35","num_nodes":"43","size_leaf_vector":"1"}},{"base_weights":[-5.6583896E-2,-2.087625E-1,2.7722064E-1,-3.7312612E-1,-3.2287583E-2,-7.746721E-3,3.2515085E-1,-0E0,-4.184703E-1,8.885722E-2,-1.8701434E-1,3.561443E-1,-5.050015E-3,-9.01724E-3,8.585575E-2,2.6926305E-3,-4.4134715E-1,1.5990695E-1,-1.383854E-2,-2.3482454E-1,5.8955554E-2,3.79854E-1,-4.1796695E-3,-2.8433332E-3,1.2180557E-2,-0E0,-4.4639695E-2,-1.1284576E-2,2.3490995E-2,-2.5973568E-2,1.8848283E-3,8.92885E-3,-2.0718805E-3,4.0530115E-2,-1.2923785E-3],"categories":[],"categories_nodes":[],"categories_segments":[],"categories_sizes":[],"default_left":[0,0,0,0,0,0,0,0,0,0,0,0,0,0,0,0,0,0,0,0,0,0,0,0,0,0,0,0,0,0,0,0,0,0,0],"id":27,"left_children":[1,3,5,7,9,-1,11,13,15,17,19,21,-1,-1,23,-1,25,27,-1,29,31,33,-1,-1,-1,-1,-1,-1,-1,-1,-1,-1,-1,-1,-1],"loss_changes":[4.4348934E1,1.5255068E1,7.5100803E0,5.0318184E0,9.122607E0,0E0,5.219019E0,1.7824168E0,4.233803E0,6.8273306E0,4.0101604E0,4.397915E0,0E0,0E0,9.3296367E-1,0E0,6.127014E-1,8.22393E0,0E0,1.9809866E0,5.2045035E-1,3.510624E0,0E0,0E0,0E0,0E0,0E0,0E0,0E0,0E0,0E0,0E0,0E0,0E0,0E0],"parents":[2147483647,0,0,1,1,2,2,3,3,4,4,6,6,7,7,8,8,9,9,10,10,11,11,14,14,16,16,17,17,19,19,20,20,21,21],"right_children":[2,4,6,8,10,-1,12,14,16,18,20,22,-1,-1,24,-1,26,28,-1,30,32,34,-1,-1,-1,-1,-1,-1,-1,-1,-1,-1,-1,-1,-1],"split_conditions":[2.204309E1,3.6555088E1,1.23792145E2,2.1E0,4.2E0,-7.746721E-3,1.48E1,8.026173E0,2.67E1,3.6E1,3.9629302E0,1.04E2,-5.050015E-3,-9.01724E-3,1.0242083E2,2.6926305E-3,1.26E2,3.0889528E0,-1.383854E-2,2.4847311E1,2.862921E0,2E0,-4.1796695E-3,-2.8433332E-3,1.2180557E-2,-0E0,-4.4639695E-2,-1.1284576E-2,2.3490995E-2,-2.5973568E-2,1.8848283E-3,8.92885E-3,-2.0718805E-3,4.0530115E-2,-1.2923785E-3],"split_indices":[33,5,23,16,11,0,14,8,28,29,21,29,0,0,22,0,10,8,0,31,16,32,0,0,0,0,0,0,0,0,0,0,0,0,0],"split_type":[0,0,0,0,0,0,0,0,0,0,0,0,0,0,0,0,0,0,0,0,0,0,0,0,0,0,0,0,0,0,0,0,0,0,0],"sum_hessian":[6.6046564E2,4.8143774E2,1.7902788E2,1.886423E2,2.9279544E2,1.1492626E1,1.6753525E2,3.0429813E1,1.5821248E2,1.844708E2,1.0832465E2,1.6202225E2,5.5130033E0,1.0376957E1,2.0052856E1,4.7289815E0,1.534835E2,1.6645815E2,1.8012642E1,9.7893425E1,1.0431226E1,1.5957285E2,2.4493978E0,3.1452844E0,1.6907572E1,2.627822E0,1.5085568E2,2.2143663E1,1.4431448E2,9.055302E1,7.340409E0,7.905721E0,2.5255046E0,1.492602E2,1.031266E1],"tree_param":{"num_deleted":"0","num_feature":"35","num_nodes":"35","size_leaf_vector":"1"}},{"base_weights":[-7.080656E-2,-2.7291858E-1,1.9855522E-1,-4.2794493E-1,-8.9263976E-2,-5.5862438E-2,3.1488824E-1,-4.9805425E-2,3.8812745E-2,-2.7548584E-1,8.1134364E-2,-2.3434031E-1,9.8412804E-2,3.5629436E-1,-5.959427E-3,1.2455918E-1,-7.910649E-3,3.2260406E-3,-3.0562967E-1,-1.1775186E-1,2.3541015E-1,-0E0,-2.4712492E-2,1.6903907E-1,-9.800105E-3,-4.56161E-3,3.9433384E-1,1.4388122E-2,-9.616182E-4,6.60496E-4,-3.367819E-2,-1.7707748E-2,5.181251E-3,-7.286103E-3,2.9576642E-2,-4.03885E-3,2.1132631E-2,4.357179E-2,-1.1048577E-3],"categories":[],"categories_nodes":[],"categories_segments":[],"categories_sizes":[],"default_left":[0,0,0,0,0,0,0,0,0,0,0,0,0,0,0,0,0,0,0,0,0,0,0,0,0,0,0,0,0,0,0,0,0,0,0,0,0,0,0],"id":28,"left_children":[1,3,5,7,9,11,13,-1,15,17,19,21,23,25,-1,27,-1,-1,29,31,33,-1,-1,35,-1,-1,37,-1,-1,-1,-1,-1,-1,-1,-1,-1,-1,-1,-1],"loss_changes":[4.6233803E1,9.094822E0,1.3163302E1,9.804901E0,1.3385151E1,7.9598885E0,6.7022915E0,0E0,2.2490766E0,3.026763E0,1.0705719E1,6.016669E-1,4.1538954E0,6.2052155E0,0E0,5.669097E-1,0E0,0E0,2.3621387E0,2.804211E0,5.720083E0,0E0,0E0,2.521925E0,0E0,0E0,5.1857758E0,0E0,0E0,0E0,0E0,0E0,0E0,0E0,0E0,0E0,0E0,0E0,0E0],"parents":[2147483647,0,0,1,1,2,2,3,3,4,4,5,5,6,6,8,8,9,9,10,10,11,11,12,12,13,13,15,15,18,18,19,19,20,20,23,23,26,26],"right_children":[2,4,6,8,10,12,14,-1,16,18,20,22,24,26,-1,28,-1,-1,30,32,34,-1,-1,36,-1,-1,38,-1,-1,-1,-1,-1,-1,-1,-1,-1,-1,-1,-1],"split_conditions":[1.4012101E1,5.3683567E0,2.0054976E1,1.922428E1,9.018488E1,7.003635E1,3.7E0,-4.9805425E-2,1.778033E1,2.74E1,1.6873316E1,1.9664289E0,3.39E1,7.457537E-1,-5.959427E-3,2.4291607E1,-7.910649E-3,3.2260406E-3,2.4610405E1,1E0,7.2835593E0,-0E0,-2.4712492E-2,2.4610405E1,-9.800105E-3,-4.56161E-3,1.0995376E2,1.4388122E-2,-9.616182E-4,6.60496E-4,-3.367819E-2,-1.7707748E-2,5.181251E-3,-7.286103E-3,2.9576642E-2,-4.03885E-3,2.1132631E-2,4.357179E-2,-1.1048577E-3],"split_indices":[33,33,24,30,3,7,16,0,4,28,31,16,28,20,0,29,0,0,26,34,17,0,0,26,0,0,3,0,0,0,0,0,0,0,0,0,0,0,0],"split_type":[0,0,0,0,0,0,0,0,0,0,0,0,0,0,0,0,0,0,0,0,0,0,0,0,0,0,0,0,0,0,0,0,0,0,0,0,0,0,0],"sum_hessian":[6.4833875E2,3.717746E2,2.7656412E2,1.2651757E2,2.4525703E2,1.0039253E2,1.7617159E2,1.06028854E2,2.0488714E1,9.052387E1,1.5473317E2,2.548909E1,7.490344E1,1.6540965E2,1.076193E1,1.3512438E1,6.9762764E0,4.489845E0,8.603403E1,7.510427E1,7.96289E1,2.7961116E0,2.2692978E1,6.9089066E1,5.814378E0,1.0306705E1,1.5510295E2,1.2003139E1,1.5092995E0,1.2041465E1,7.399256E1,5.672463E1,1.8379648E1,6.9328175E0,7.2696075E1,8.388304E0,6.070076E1,1.3618404E2,1.8918907E1],"tree_param":{"num_deleted":"0","num_feature":"35","num_nodes":"39","size_leaf_vector":"1"}},{"base_weights":[-7.5163454E-2,-2.3269825E-1,1.7702991E-1,-5.214687E-4,-3.1793174E-1,-7.678791E-2,2.7490705E-1,1.3458095E-1,-1.1498781E-1,-9.371001E-3,-3.604105E-1,-1.5135762E-1,6.755501E-2,3.2418412E-1,-4.4192933E-2,2.0876238E-1,-5.8793738E-3,4.660531E-2,-1.7275144E-1,7.588401E-2,-1.0912482E-1,2.3584745E-3,-3.761344E-1,4.1492074E-3,-1.944178E-1,1.1516605E-2,-4.1030105E-3,-0E0,3.6481678E-1,-1.0656762E-2,4.350586E-2,-3.26682E-3,2.4773318E-2,1.0747339E-2,-4.93699E-3,-2.0883225E-2,2.3399412E-3,-4.831371E-3,1.2502879E-2,-1.2909728E-2,1.1314191E-3,-3.8880643E-2,8.909493E-4,9.6593343E-4,-2.185057E-2,9.117099E-3,-1.0561447E-2,3.9531704E-2,-9.4065274E-4,-3.7662305E-3,8.918194E-3],"categories":[],"categories_nodes":[],"categories_segments":[],"categories_sizes":[],"default_left":[0,0,0,0,0,0,0,0,0,0,0,0,0,0,0,0,0,0,0,0,0,0,0,0,0,0,0,0,0,0,0,0,0,0,0,0,0,0,0,0,0,0,0,0,0,0,0,0,0,0,0],"id":29,"left_children":[1,3,5,7,9,11,13,15,17,19,21,23,25,27,29,31,-1,33,35,37,39,-1,41,-1,43,-1,-1,45,47,-1,49,-1,-1,-1,-1,-1,-1,-1,-1,-1,-1,-1,-1,-1,-1,-1,-1,-1,-1,-1,-1],"loss_changes":[3.3491493E1,9.556372E0,1.0707648E1,5.2013288E0,4.041279E0,2.9297338E0,5.9371414E0,3.5436385E0,2.672279E0,2.1315567E0,3.1291695E0,2.1813807E0,1.1788275E0,3.6204586E0,1.189826E0,2.293198E0,0E0,1.3090634E0,1.8291621E0,1.4993441E0,5.410733E-1,0E0,2.234169E0,0E0,1.1184425E0,0E0,0E0,2.1793258E0,3.298357E0,0E0,8.1276196E-1,0E0,0E0,0E0,0E0,0E0,0E0,0E0,0E0,0E0,0E0,0E0,0E0,0E0,0E0,0E0,0E0,0E0,0E0,0E0,0E0],"parents":[2147483647,0,0,1,1,2,2,3,3,4,4,5,5,6,6,7,7,8,8,9,9,10,10,11,11,12,12,13,13,14,14,15,15,17,17,18,18,19,19,20,20,22,22,24,24,27,27,28,28,30,30],"right_children":[2,4,6,8,10,12,14,16,18,20,22,24,26,28,30,32,-1,34,36,38,40,-1,42,-1,44,-1,-1,46,48,-1,50,-1,-1,-1,-1,-1,-1,-1,-1,-1,-1,-1,-1,-1,-1,-1,-1,-1,-1,-1,-1],"split_conditions":[1.6268188E1,3.8E0,1.4659319E3,1.8947353E1,2.3E0,2.6818182E0,3E3,1.5E1,8.688177E0,2.05E2,2.67E1,5.5E1,1.308E3,7.805426E1,1.8007578E1,1.6062204E1,-5.8793738E-3,8.6607796E-1,3.7035475E0,7.256236E0,2.6242312E3,2.3584745E-3,5.2608716E2,4.1492074E-3,7.94E1,1.1516605E-2,-4.1030105E-3,2.9E0,4.8E0,-1.0656762E-2,2.8505487E1,-3.26682E-3,2.4773318E-2,1.0747339E-2,-4.93699E-3,-2.0883225E-2,2.3399412E-3,-4.831371E-3,1.2502879E-2,-1.2909728E-2,1.1314191E-3,-3.8880643E-2,8.909493E-4,9.6593343E-4,-2.185057E-2,9.117099E-3,-1.0561447E-2,3.9531704E-2,-9.4065274E-4,-3.7662305E-3,8.918194E-3],"split_indices":[33,11,9,2,16,20,9,8,14,19,28,7,9,3,4,4,0,21,11,17,23,0,22,0,27,0,0,16,11,0,25,0,0,0,0,0,0,0,0,0,0,0,0,0,0,0,0,0,0,0,0],"split_type":[0,0,0,0,0,0,0,0,0,0,0,0,0,0,0,0,0,0,0,0,0,0,0,0,0,0,0,0,0,0,0,0,0,0,0,0,0,0,0,0,0,0,0,0,0,0,0,0,0,0,0],"sum_hessian":[6.3790436E2,3.9983768E2,2.3806668E2,1.375351E2,2.6230258E2,6.940733E1,1.6865935E2,5.1014717E1,8.6520386E1,4.935989E1,2.1294267E2,4.7128334E1,2.2279E1,1.4743259E2,2.1226768E1,3.4856934E1,1.6157785E1,2.3311628E1,6.3208755E1,3.41109E1,1.5248988E1,3.9082296E0,2.0903445E2,5.028044E0,4.2100292E1,1.7676975E1,4.602025E0,2.4844994E1,1.2258759E2,6.494683E0,1.4732087E1,3.52588E0,3.1331053E1,1.3309594E1,1.0002034E1,5.223367E1,1.0975088E1,4.3813863E0,2.9729515E1,1.4035496E1,1.2134922E0,2.0394249E2,5.0919538E0,6.3855596E0,3.5714733E1,1.5643238E1,9.201756E0,1.1060825E2,1.1979335E1,3.739081E0,1.0993006E1],"tree_param":{"num_deleted":"0","num_feature":"35","num_nodes":"51","size_leaf_vector":"1"}},{"base_weights":[-7.0141256E-2,-2.0841701E-1,2.2969091E-1,-3.5627627E-1,-4.358605E-2,-6.875014E-2,2.8244787E-1,-4.0294716E-1,-1.7804887E-2,1.4049444E-1,-1.2408577E-1,-1.1867675E-2,3.1486084E-3,3.2824585E-1,-5.4770246E-2,-1.5388248E-2,-4.533746E-1,-1.1033696E-2,6.665066E-2,1.753102E-1,-3.8593404E-3,-2.756208E-1,3.584046E-2,-4.0900344E-3,3.6009613E-1,-1.070641E-2,3.962898E-3,-1.0604351E-2,6.8650763E-3,-4.7285303E-2,1.6495917E-3,1.3311088E-2,-6.435574E-3,-3.7653842E-3,2.1145994E-2,1.6294409E-3,-3.173218E-2,-1.4465411E-2,1.336433E-2,-2.4026344E-3,3.908089E-2],"categories":[],"categories_nodes":[],"categories_segments":[],"categories_sizes":[],"default_left":[0,0,0,0,0,0,0,0,0,0,0,0,0,0,0,0,0,0,0,0,0,0,0,0,0,0,0,0,0,0,0,0,0,0,0,0,0,0,0,0,0],"id":30,"left_children":[1,3,5,7,9,11,13,15,17,19,21,-1,-1,23,25,27,29,-1,31,33,-1,35,37,-1,39,-1,-1,-1,-1,-1,-1,-1,-1,-1,-1,-1,-1,-1,-1,-1,-1],"loss_changes":[3.564038E1,1.1801762E1,6.5692644E0,3.290577E0,7.4172344E0,1.059829E0,6.0966053E0,3.5077438E0,1.8824898E0,1.8106234E0,9.080738E0,0E0,0E0,4.6888676E0,1.0557381E0,1.7811968E0,3.1202393E0,0E0,2.061709E0,2.1759157E0,0E0,3.022728E0,6.210804E0,0E0,4.131365E0,0E0,0E0,0E0,0E0,0E0,0E0,0E0,0E0,0E0,0E0,0E0,0E0,0E0,0E0,0E0,0E0],"parents":[2147483647,0,0,1,1,2,2,3,3,4,4,5,5,6,6,7,7,8,8,9,9,10,10,13,13,14,14,15,15,16,16,18,18,19,19,21,21,22,22,24,24],"right_children":[2,4,6,8,10,12,14,16,18,20,22,-1,-1,24,26,28,30,-1,32,34,-1,36,38,-1,40,-1,-1,-1,-1,-1,-1,-1,-1,-1,-1,-1,-1,-1,-1,-1,-1],"split_conditions":[2.1196943E1,3.6555088E1,7.536702E1,8.619841E1,3.67E1,1.8007578E1,1.15E2,1.73E1,1.1335933E2,7.53E0,7.256547E1,-1.1867675E-2,3.1486084E-3,1.959E1,3.685645E1,9.10206E1,7.619425E0,-1.1033696E-2,2.2E1,1.13143425E1,-3.8593404E-3,1.3492601E2,1.0521823E2,-4.0900344E-3,1.4707011E1,-1.070641E-2,3.962898E-3,-1.0604351E-2,6.8650763E-3,-4.7285303E-2,1.6495917E-3,1.3311088E-2,-6.435574E-3,-3.7653842E-3,2.1145994E-2,1.6294409E-3,-3.173218E-2,-1.4465411E-2,1.336433E-2,-2.4026344E-3,3.908089E-2],"split_indices":[33,5,3,25,5,4,3,12,22,17,7,0,0,1,5,3,17,0,4,2,0,10,22,0,25,0,0,0,0,0,0,0,0,0,0,0,0,0,0,0,0],"split_type":[0,0,0,0,0,0,0,0,0,0,0,0,0,0,0,0,0,0,0,0,0,0,0,0,0,0,0,0,0,0,0,0,0,0,0,0,0,0,0,0,0],"sum_hessian":[6.446903E2,4.6436142E2,1.8032892E2,1.8035934E2,2.8400208E2,1.9687712E1,1.606412E2,1.391665E2,4.1192844E1,5.9953896E1,2.2404817E2,7.5209656E0,1.2166745E1,1.463864E2,1.4254801E1,3.3332943E1,1.0583356E2,1.0683362E1,3.0509483E1,5.6636627E1,3.317268E0,8.110711E1,1.4294107E2,6.876464E0,1.3950993E2,7.35655E0,6.8982506E0,9.16354E0,2.4169403E1,1.0305491E2,2.7786477E0,2.4239483E1,6.270002E0,3.600716E0,5.303591E1,1.4756196E1,6.6350914E1,2.9805935E1,1.13135124E2,9.530022E0,1.2997992E2],"tree_param":{"num_deleted":"0","num_feature":"35","num_nodes":"41","size_leaf_vector":"1"}},{"base_weights":[-7.5011805E-2,-2.0913287E-1,2.0770372E-1,-4.233473E-2,-3.4801376E-1,-6.6885866E-2,2.6566362E-1,-3.4469897E-1,1.3225237E-1,4.9086283E-3,-3.9927268E-1,-1.2542468E-1,5.250142E-3,-3.2055065E-2,3.0412436E-1,-3.674432E-1,8.388767E-4,-1.19506575E-1,2.7268425E-1,-8.994486E-3,9.619077E-2,-0E0,-4.3223977E-1,-1.5945572E-2,2.3683857E-3,4.075601E-3,-8.750136E-3,-1.7208632E-2,3.6081418E-1,-3.793478E-2,-0E0,4.871011E-3,-1.8359639E-2,-8.676843E-3,3.4918364E-2,-3.6298924E-3,1.4101148E-2,-6.8086083E-3,6.6142264E-3,-4.5964956E-2,5.668303E-4,-7.430075E-3,4.4471635E-3,3.8674884E-2,-3.5774612E-3],"categories":[],"categories_nodes":[],"categories_segments":[],"categories_sizes":[],"default_left":[0,0,0,0,0,0,0,0,0,0,0,0,0,0,0,0,0,0,0,0,0,0,0,0,0,0,0,0,0,0,0,0,0,0,0,0,0,0,0,0,0,0,0,0,0],"id":31,"left_children":[1,3,5,7,9,11,13,15,17,19,21,23,-1,25,27,29,-1,31,33,-1,35,37,39,-1,-1,-1,-1,41,43,-1,-1,-1,-1,-1,-1,-1,-1,-1,-1,-1,-1,-1,-1,-1,-1],"loss_changes":[3.225831E1,1.091209E1,6.505678E0,2.4181177E1,5.724743E0,1.6154218E0,4.20282E0,1.9876862E0,1.4134149E1,2.0169919E0,3.3962975E0,1.1223458E0,0E0,8.758017E-1,5.3568573E0,1.0702496E0,0E0,2.9220212E0,9.553541E0,0E0,1.3357943E0,9.8461086E-1,3.5086708E0,0E0,0E0,0E0,0E0,8.143904E-1,3.9166927E0,0E0,0E0,0E0,0E0,0E0,0E0,0E0,0E0,0E0,0E0,0E0,0E0,0E0,0E0,0E0,0E0],"parents":[2147483647,0,0,1,1,2,2,3,3,4,4,5,5,6,6,7,7,8,8,9,9,10,10,11,11,13,13,14,14,15,15,17,17,18,18,20,20,21,21,22,22,27,27,28,28],"right_children":[2,4,6,8,10,12,14,16,18,20,22,24,-1,26,28,30,-1,32,34,-1,36,38,40,-1,-1,-1,-1,42,44,-1,-1,-1,-1,-1,-1,-1,-1,-1,-1,-1,-1,-1,-1,-1,-1],"split_conditions":[2.0106318E1,1E1,2.2356754E1,3.0889528E0,2.1910603E0,3.4258835E1,8.77293E1,7.9E1,1.961648E1,1.0907653E2,3.4E0,7.4836183E0,5.250142E-3,2.3903835E1,1.6133247E2,3.276824E1,8.388767E-4,8.91141E0,9.820944E1,-8.994486E-3,6.756942E1,9.255801E1,2.9E2,-1.5945572E-2,2.3683857E-3,4.075601E-3,-8.750136E-3,1.655E2,3.469564E1,-3.793478E-2,-0E0,4.871011E-3,-1.8359639E-2,-8.676843E-3,3.4918364E-2,-3.6298924E-3,1.4101148E-2,-6.8086083E-3,6.6142264E-3,-4.5964956E-2,5.668303E-4,-7.430075E-3,4.4471635E-3,3.8674884E-2,-3.5774612E-3],"split_indices":[33,8,1,8,16,2,22,29,24,22,11,17,0,2,23,12,0,14,22,0,7,3,25,0,0,0,0,19,12,0,0,0,0,0,0,0,0,0,0,0,0,0,0,0,0],"split_type":[0,0,0,0,0,0,0,0,0,0,0,0,0,0,0,0,0,0,0,0,0,0,0,0,0,0,0,0,0,0,0,0,0,0,0,0,0,0,0,0,0,0,0,0,0],"sum_hessian":[6.36142E2,4.5150903E2,1.8463298E2,2.6769104E2,1.8381798E2,2.6488424E1,1.5814455E2,6.441792E1,2.0327313E2,3.2305653E1,1.5151233E2,2.0000666E1,6.4877596E0,1.7023413E1,1.4112114E2,5.9360653E1,5.057268E0,7.5571785E1,1.2770135E2,1.1188927E1,2.1116728E1,1.8724363E1,1.3278796E2,1.6094572E1,3.9060924E0,1.1016233E1,6.0071783E0,2.896189E1,1.1215925E2,5.6952778E1,2.4078772E0,2.3164877E1,5.2406906E1,1.775924E1,1.0994211E2,4.504215E0,1.6612513E1,6.301762E0,1.2422601E1,1.224427E2,1.0345266E1,1.2834029E1,1.6127861E1,1.0997047E2,2.188784E0],"tree_param":{"num_deleted":"0","num_feature":"35","num_nodes":"45","size_leaf_vector":"1"}},{"base_weights":[-8.086516E-2,-3.5683987E-1,4.8718996E-2,6.0867053E-3,-3.955417E-1,-1.9512692E-1,1.54666E-1,2.3923608E-4,-4.066034E-1,3.4538113E-2,-2.633567E-1,2.8422827E-1,-1.538247E-1,-0E0,-4.1523215E-1,-6.042954E-3,9.108942E-2,1.9026283E-3,-2.8120014E-1,3.465857E-1,-1.1120246E-2,-2.4485978E-1,1.01655E-1,-4.2334884E-2,-0E0,1.3494915E-2,-3.6736813E-3,5.70555E-4,-2.9193064E-2,4.230898E-2,-7.264362E-3,-2.8663043E-2,-0E0,-2.3836647E-3,1.32300975E-2],"categories":[],"categories_nodes":[],"categories_segments":[],"categories_sizes":[],"default_left":[0,0,0,0,0,0,0,0,0,0,0,0,0,0,0,0,0,0,0,0,0,0,0,0,0,0,0,0,0,0,0,0,0,0,0],"id":32,"left_children":[1,3,5,-1,7,9,11,-1,13,15,17,19,21,-1,23,-1,25,-1,27,29,-1,31,33,-1,-1,-1,-1,-1,-1,-1,-1,-1,-1,-1,-1],"loss_changes":[2.788638E1,6.7085075E0,1.7889353E1,0E0,1.5582352E0,4.5259943E0,2.292887E1,0E0,9.956703E-1,1.3037891E0,1.7123175E0,1.3017248E1,7.2595778E0,0E0,7.887726E-1,0E0,1.3274208E0,0E0,1.0084629E0,1.4303635E1,0E0,1.8730526E0,8.855028E-1,0E0,0E0,0E0,0E0,0E0,0E0,0E0,0E0,0E0,0E0,0E0,0E0],"parents":[2147483647,0,0,1,1,2,2,4,4,5,5,6,6,8,8,9,9,10,10,11,11,12,12,14,14,16,16,18,18,19,19,21,21,22,22],"right_children":[2,4,6,-1,8,10,12,-1,14,16,18,20,22,-1,24,-1,26,-1,28,30,-1,32,34,-1,-1,-1,-1,-1,-1,-1,-1,-1,-1,-1,-1],"split_conditions":[6.0581183E0,2.49E1,1.7066133E1,6.0867053E-3,1.28E2,1.2216597E2,2.2E1,2.3923608E-4,1.6E0,3.0219402E1,6.918818E0,1.5E1,3.326941E1,-0E0,9.07E2,-6.042954E-3,3.0827198E0,1.9026283E-3,2.74E1,1.4494525E2,-1.1120246E-2,3.7003548E1,3.1107489E1,-4.2334884E-2,-0E0,1.3494915E-2,-3.6736813E-3,5.70555E-4,-2.9193064E-2,4.230898E-2,-7.264362E-3,-2.8663043E-2,-0E0,-2.3836647E-3,1.32300975E-2],"split_indices":[33,28,4,0,10,19,4,0,16,28,33,8,33,0,23,0,20,0,28,10,0,5,28,0,0,0,0,0,0,0,0,0,0,0,0],"split_type":[0,0,0,0,0,0,0,0,0,0,0,0,0,0,0,0,0,0,0,0,0,0,0,0,0,0,0,0,0,0,0,0,0,0,0],"sum_hessian":[6.225493E2,1.4534746E2,4.7720184E2,5.277477E0,1.4006998E2,1.1618336E2,3.610185E2,3.4629872E0,1.36607E2,3.4563633E1,8.161973E1,2.6206213E2,9.895636E1,3.9566705E0,1.3265033E2,3.7407553E0,3.0822876E1,1.1261287E0,8.04936E1,2.3921965E2,2.2842487E1,7.890957E1,2.004679E1,1.282158E2,4.434515E0,2.4624502E1,6.1983733E0,1.2304709E0,7.926313E1,2.0354054E2,3.5679104E1,5.3362617E1,2.5546951E1,1.8911874E0,1.8155602E1],"tree_param":{"num_deleted":"0","num_feature":"35","num_nodes":"35","size_leaf_vector":"1"}},{"base_weights":[-5.5314995E-2,-2.3319504E-1,1.2869152E-1,-3.2395118E-1,-0E0,2.1906067E-1,-1.850663E-1,-3.593352E-1,6.164685E-3,-1.541648E-1,1.4754902E-1,-1.1318628E-1,3.0086088E-1,-2.2116734E-1,1.8728795E-3,-0E0,-4.3070668E-1,-5.986335E-3,6.714639E-2,-1.9982462E-1,3.0978408E-3,-6.0203667E-3,2.0146015E-1,6.0850284E-3,-1.7053819E-1,3.599869E-1,-7.4547306E-2,-2.428175E-2,1.6186169E-3,1.0440472E-2,-9.648073E-3,8.974786E-4,-4.423782E-2,-2.5359655E-3,1.0248798E-2,1.9744139E-3,-2.2962991E-2,2.5419245E-2,-3.6128256E-3,1.7153573E-3,-1.9224582E-2,-6.3229487E-3,4.1913915E-2,-1.1394931E-2,1.6436434E-3],"categories":[],"categories_nodes":[],"categories_segments":[],"categories_sizes":[],"default_left":[0,0,0,0,0,0,0,0,0,0,0,0,0,0,0,0,0,0,0,0,0,0,0,0,0,0,0,0,0,0,0,0,0,0,0,0,0,0,0,0,0,0,0,0,0],"id":33,"left_children":[1,3,5,7,9,11,13,15,17,19,21,23,25,27,-1,29,31,-1,33,35,-1,-1,37,-1,39,41,43,-1,-1,-1,-1,-1,-1,-1,-1,-1,-1,-1,-1,-1,-1,-1,-1,-1,-1],"loss_changes":[2.6790005E1,8.790985E0,1.5921749E1,4.012123E0,7.0924807E0,1.3711222E1,1.6838846E0,6.696724E0,9.087982E-1,2.0609083E0,3.161636E0,2.5827327E0,1.0260464E1,1.3144407E0,0E0,2.4740176E0,1.9808617E0,0E0,7.277309E-1,1.5700126E0,0E0,0E0,3.0778751E0,0E0,1.0702896E0,1.0597862E1,7.337853E-1,0E0,0E0,0E0,0E0,0E0,0E0,0E0,0E0,0E0,0E0,0E0,0E0,0E0,0E0,0E0,0E0,0E0,0E0],"parents":[2147483647,0,0,1,1,2,2,3,3,4,4,5,5,6,6,7,7,8,8,9,9,10,10,11,11,12,12,13,13,15,15,16,16,18,18,19,19,22,22,24,24,25,25,26,26],"right_children":[2,4,6,8,10,12,14,16,18,20,22,24,26,28,-1,30,32,-1,34,36,-1,-1,38,-1,40,42,44,-1,-1,-1,-1,-1,-1,-1,-1,-1,-1,-1,-1,-1,-1,-1,-1,-1,-1],"split_conditions":[7.4102483E0,1.104813E0,1.5E1,3.326941E1,1.455E0,1.6062204E1,1.6268188E1,3.8E0,4.0013885E0,1.4722534E2,3.8527985E0,2.74E1,2.9590744E1,5.52E3,1.8728795E-3,2.6E1,1.63E1,-5.986335E-3,1.1908111E2,1.3E0,3.0978408E-3,-6.0203667E-3,4.9E0,6.0850284E-3,7.42E0,3.0889528E0,2.1117961E3,-2.428175E-2,1.6186169E-3,1.0440472E-2,-9.648073E-3,8.974786E-4,-4.423782E-2,-2.5359655E-3,1.0248798E-2,1.9744139E-3,-2.2962991E-2,2.5419245E-2,-3.6128256E-3,1.7153573E-3,-1.9224582E-2,-6.3229487E-3,4.1913915E-2,-1.1394931E-2,1.6436434E-3],"split_indices":[17,21,8,33,13,4,33,11,11,25,11,28,12,9,0,26,26,0,6,21,0,0,11,0,17,8,9,0,0,0,0,0,0,0,0,0,0,0,0,0,0,0,0,0,0],"split_type":[0,0,0,0,0,0,0,0,0,0,0,0,0,0,0,0,0,0,0,0,0,0,0,0,0,0,0,0,0,0,0,0,0,0,0,0,0,0,0,0,0,0,0,0,0],"sum_hessian":[6.236081E2,3.0625372E2,3.1735437E2,1.9427998E2,1.11973724E2,2.7229593E2,4.505844E1,1.7021338E2,2.406661E1,5.0591087E1,6.138264E1,4.3799988E1,2.2849596E2,3.520467E1,9.853772E0,4.6033775E1,1.241796E2,4.562313E0,1.9504297E1,3.8554325E1,1.2036761E1,6.4202843E0,5.4962357E1,5.022616E0,3.8777374E1,2.0325531E2,2.5240652E1,3.401324E1,1.1914277E0,1.5468723E1,3.0565052E1,1.593076E0,1.2258653E2,5.3775473E0,1.4126749E1,4.632543E0,3.392178E1,4.270456E1,1.2257799E1,1.4191694E0,3.7358204E1,2.200658E1,1.8124872E2,7.669026E0,1.7571625E1],"tree_param":{"num_deleted":"0","num_feature":"35","num_nodes":"45","size_leaf_vector":"1"}},{"base_weights":[-4.172064E-2,-2.4410015E-1,1.06114015E-1,-2.9293573E-1,6.6611255E-3,-1.5362874E-1,1.7443453E-1,-3.4106085E-1,2.3736648E-2,-8.15122E-2,8.8452876E-2,2.7415424E-3,-1.8465061E-1,-1.1797647E-1,2.4460341E-1,-4.1997567E-1,-2.001907E-3,8.65793E-2,-6.0396483E-3,-1.1255205E-1,1.9757631E-3,-3.550316E-3,1.3187905E-1,-2.0481849E-1,1.491907E-3,5.4141734E-2,-1.903676E-1,-9.149427E-2,3.0065507E-1,1.4669552E-3,-4.3753594E-2,-1.2550607E-2,9.304229E-3,1.1476467E-2,-1.9821129E-3,1.0028887E-3,-1.3306956E-2,-1.1633595E-3,1.5102617E-2,3.808315E-4,-2.1743145E-2,-4.276425E-3,1.0860129E-2,-2.3396024E-2,3.4644876E-3,-1.3295327E-2,3.6303406E-3,3.4081385E-2,-8.598416E-3],"categories":[],"categories_nodes":[],"categories_segments":[],"categories_sizes":[],"default_left":[0,0,0,0,0,0,0,0,0,0,0,0,0,0,0,0,0,0,0,0,0,0,0,0,0,0,0,0,0,0,0,0,0,0,0,0,0,0,0,0,0,0,0,0,0,0,0,0,0],"id":34,"left_children":[1,3,5,7,9,11,13,15,17,19,21,-1,23,25,27,29,31,33,-1,35,-1,-1,37,39,-1,41,43,45,47,-1,-1,-1,-1,-1,-1,-1,-1,-1,-1,-1,-1,-1,-1,-1,-1,-1,-1,-1,-1],"loss_changes":[2.40047E1,4.5635986E0,1.1179464E1,5.463728E0,1.8008889E0,1.5038104E0,1.1797624E1,6.351122E0,1.2273978E0,6.8531585E-1,1.269875E0,0E0,1.0806131E0,3.0055587E0,1.0130112E1,2.6295319E0,2.9757159E0,6.8629736E-1,0E0,5.3973806E-1,0E0,0E0,6.56415E-1,6.737132E-1,0E0,1.1501348E0,2.286098E0,1.2602602E0,8.652077E0,0E0,0E0,0E0,0E0,0E0,0E0,0E0,0E0,0E0,0E0,0E0,0E0,0E0,0E0,0E0,0E0,0E0,0E0,0E0,0E0],"parents":[2147483647,0,0,1,1,2,2,3,3,4,4,5,5,6,6,7,7,8,8,9,9,10,10,12,12,13,13,14,14,15,15,16,16,17,17,19,19,22,22,23,23,25,25,26,26,27,27,28,28],"right_children":[2,4,6,8,10,12,14,16,18,20,22,-1,24,26,28,30,32,34,-1,36,-1,-1,38,40,-1,42,44,46,48,-1,-1,-1,-1,-1,-1,-1,-1,-1,-1,-1,-1,-1,-1,-1,-1,-1,-1,-1,-1],"split_conditions":[3.6555088E1,3.2165558E1,1.32100315E1,7.49207E0,1.1041156E2,7.0947367E-1,2.209E1,1.7024721E1,1.115E1,1.4558458E2,7.754934E1,2.7415424E-3,1.053E2,1.36E2,1.0028783E0,1.26E2,7.926708E1,4.149126E0,-6.0396483E-3,1.3744054E2,1.9757631E-3,-3.550316E-3,1.3209631E2,2.37E-1,1.491907E-3,3.1803532E1,2.35E2,9.508571E1,1.504327E2,1.4669552E-3,-4.3753594E-2,-1.2550607E-2,9.304229E-3,1.1476467E-2,-1.9821129E-3,1.0028887E-3,-1.3306956E-2,-1.1633595E-3,1.5102617E-2,3.808315E-4,-2.1743145E-2,-4.276425E-3,1.0860129E-2,-2.3396024E-2,3.4644876E-3,-1.3295327E-2,3.6303406E-3,3.4081385E-2,-8.598416E-3],"split_indices":[5,2,30,17,22,20,1,30,18,10,3,0,27,19,20,10,27,11,0,23,0,0,10,15,0,28,25,7,10,0,0,0,0,0,0,0,0,0,0,0,0,0,0,0,0,0,0,0,0],"split_type":[0,0,0,0,0,0,0,0,0,0,0,0,0,0,0,0,0,0,0,0,0,0,0,0,0,0,0,0,0,0,0,0,0,0,0,0,0,0,0,0,0,0,0,0,0,0,0,0,0],"sum_hessian":[6.1114276E2,2.333473E2,3.7779547E2,1.8457143E2,4.877588E1,4.9625668E1,3.281698E2,1.5627803E2,2.8293406E1,1.7753176E1,3.1022705E1,4.244567E0,4.53811E1,4.756621E1,2.806036E2,1.0502044E2,5.1257584E1,2.1335457E1,6.957948E0,1.2619177E1,5.133998E0,6.807763E0,2.4214943E1,4.337817E1,2.0029306E0,1.7456636E1,3.0109575E1,2.8519829E1,2.5208377E2,2.506075E0,1.02514366E2,1.2928715E1,3.832887E1,1.8082716E1,3.2527404E0,2.1508002E0,1.0468377E1,1.3217758E0,2.2893167E1,1.9327043E0,4.1445465E1,7.400708E0,1.0055929E1,2.561475E1,4.494826E0,2.4396133E1,4.1236944E0,2.4144444E2,1.0639327E1],"tree_param":{"num_deleted":"0","num_feature":"35","num_nodes":"49","size_leaf_vector":"1"}},{"base_weights":[-7.7135384E-2,-1.8519875E-1,1.8030131E-1,-1.058882E-2,-3.4566337E-1,2.2609664E-1,-6.8717855E-3,-2.0234875E-1,1.28158E-1,2.0169264E-3,-3.621853E-2,-3.166077E-2,2.6852238E-1,5.310507E-2,-2.8415743E-1,2.2730076E-1,-1.3206278E-1,-8.091009E-3,3.5872248E-3,-2.140548E-2,3.0349714E-1,-5.8243554E-3,1.2834111E-2,-3.0866766E-2,1.5108635E-3,3.1133717E-2,-6.216023E-3,-1.5461646E-2,7.619255E-4,-6.520228E-3,3.5694588E-3,3.289203E-2,-2.1933957E-3],"categories":[],"categories_nodes":[],"categories_segments":[],"categories_sizes":[],"default_left":[0,0,0,0,0,0,0,0,0,0,0,0,0,0,0,0,0,0,0,0,0,0,0,0,0,0,0,0,0,0,0,0,0],"id":35,"left_children":[1,3,5,7,9,11,-1,13,15,-1,-1,17,19,21,23,25,27,-1,-1,29,31,-1,-1,-1,-1,-1,-1,-1,-1,-1,-1,-1,-1],"loss_changes":[2.3413033E1,1.4973198E1,4.6900253E0,1.262902E1,2.7997742E0,3.7918873E0,0E0,5.898404E0,1.0202865E1,0E0,0E0,7.37986E-1,3.22612E0,1.9029374E0,2.002655E0,7.997591E0,6.94684E-1,0E0,0E0,5.4906327E-1,2.7789097E0,0E0,0E0,0E0,0E0,0E0,0E0,0E0,0E0,0E0,0E0,0E0,0E0],"parents":[2147483647,0,0,1,1,2,2,3,3,4,4,5,5,7,7,8,8,11,11,12,12,13,13,14,14,15,15,16,16,19,19,20,20],"right_children":[2,4,6,8,10,12,-1,14,16,-1,-1,18,20,22,24,26,28,-1,-1,30,32,-1,-1,-1,-1,-1,-1,-1,-1,-1,-1,-1,-1],"split_conditions":[2.204309E1,3.24E1,3.7E0,1.1335933E2,1.7E0,9.5E1,-6.8717855E-3,1.55E2,9.04E1,2.0169264E-3,-3.621853E-2,2.3430359E2,7.05E-1,3.153646E1,9.07E2,2.355E2,3.1911726E1,-8.091009E-3,3.5872248E-3,1.5388443E2,3.1755827E1,-5.8243554E-3,1.2834111E-2,-3.0866766E-2,1.5108635E-3,3.1133717E-2,-6.216023E-3,-1.5461646E-2,7.619255E-4,-6.520228E-3,3.5694588E-3,3.289203E-2,-2.1933957E-3],"split_indices":[33,28,16,22,16,19,0,23,27,0,0,23,13,28,23,19,28,0,0,22,12,0,0,0,0,0,0,0,0,0,0,0,0],"split_type":[0,0,0,0,0,0,0,0,0,0,0,0,0,0,0,0,0,0,0,0,0,0,0,0,0,0,0,0,0,0,0,0,0],"sum_hessian":[6.214003E2,4.6017786E2,1.6122247E2,2.744094E2,1.8576845E2,1.47346E2,1.3876475E1,9.8979034E1,1.7543036E2,4.457954E0,1.813105E2,2.1079653E1,1.2626634E2,2.9554735E1,6.94243E1,1.3897522E2,3.645514E1,9.298196E0,1.1781458E1,1.4690759E1,1.1157558E2,1.56649E1,1.3889835E1,6.435363E1,5.070674E0,1.0452627E2,3.4448956E1,2.8345703E1,8.109436E0,1.0194787E1,4.4959717E0,1.0534643E2,6.2291555E0],"tree_param":{"num_deleted":"0","num_feature":"35","num_nodes":"33",